nep4_zbl 1 Si 
zbl 1 2
cutoff 6 4 76 22
n_max 8 8
basis_size 8 8
l_max 4 2 0
ANN 80 0
 -1.7312993e+00
  2.7118579e-01
 -5.2966434e-01
 -1.0391554e+00
  1.2830708e-02
 -1.9633673e-01
 -4.7209480e-01
 -8.2281280e-01
 -6.1290240e-01
 -9.1460776e-03
  2.7144434e-02
  2.0510764e-03
  2.3870956e-02
  8.4203994e-03
 -9.4748680e-03
 -1.5437478e-04
  2.0048302e-02
 -5.2804708e-02
 -5.4532357e-02
  6.1235651e-03
 -4.5345560e-01
  2.8835775e-03
  5.6579255e-02
  1.5968552e-01
  1.8879784e-02
  4.1879099e-02
 -3.1567995e-02
 -8.2765199e-02
  1.2540337e-02
 -4.0339837e-03
 -2.3709538e-03
  2.4349283e-01
 -2.2296399e-01
 -2.3544458e-01
 -1.9970837e-01
  1.5255238e-03
  7.5106942e-03
  2.3231192e-02
 -1.3610342e-01
 -2.5047803e-01
  8.4838402e-03
 -5.0258044e-02
 -3.1595433e-01
 -9.8664155e-03
  2.3390559e-02
 -6.0883677e-03
 -5.6668103e-04
  2.0649739e-01
  2.6302548e-02
 -3.7354615e-02
 -8.6095026e-03
  5.4234392e-03
 -1.5202711e-02
 -1.0105075e-01
 -1.9367212e-01
  6.4775610e-01
 -9.2489082e-01
  5.0085645e-02
 -2.4561934e-02
 -1.4409419e+00
 -3.1250983e-01
 -1.0806774e-01
 -6.2655377e-01
  6.7279056e-02
  1.2469502e-02
  6.7920606e-05
 -5.0939731e-02
  3.1261665e-01
 -1.0570742e+00
 -1.4140590e-01
 -1.4923077e-02
  2.7047563e-01
  5.7783350e-02
 -5.8461772e-03
  3.3918224e-02
 -3.7631351e-03
  1.0120802e-01
  1.9067919e-02
 -2.6768227e-03
 -2.1259552e-03
  2.0174025e-01
 -1.7925918e-01
  4.1214265e-03
  1.3618479e-02
 -2.7610378e-03
 -5.9277866e-02
  6.8839955e-01
  1.6726027e+00
  1.4128063e+00
 -1.4202636e+00
 -5.0446426e-04
 -1.5594188e-02
  9.6623013e-03
 -6.8016209e-02
 -1.5248525e-01
 -4.0088039e-02
 -1.9664136e-01
 -1.0251851e+00
  1.3344880e+00
  5.4829791e-03
 -1.1415356e-04
  2.4404814e-02
  1.0134140e-02
  4.4121236e-02
 -4.1860100e-03
 -2.3372731e-01
  4.6761125e-01
  6.9534019e-02
  4.6755273e-02
 -1.0027662e-02
  5.4418545e-02
 -4.4609932e-03
  2.5483342e-02
 -3.6366549e-03
  1.3539638e-02
 -3.4070577e-02
 -3.6127418e-03
  8.8201165e-03
 -1.0950164e-03
 -1.8933779e-02
 -1.0510628e-02
 -2.3942728e-02
 -2.9812353e-02
 -7.0809794e-04
  6.9302064e-04
 -8.5981246e-03
  1.6004471e-03
  6.7284754e-03
  1.1487856e-03
  4.6873153e-03
  1.3083982e-02
  1.4764218e-03
 -1.6053453e-02
 -9.4847791e-02
 -2.0645637e-02
 -4.0196870e-03
 -3.6774178e-03
 -1.6978353e-02
  1.0618689e-02
  1.9227412e-04
  2.1402088e-01
  1.5764575e-02
  3.4997631e-02
 -1.0580792e-01
 -7.1358721e-04
  1.2432815e-02
 -3.9126489e-02
  5.0311531e-03
  4.3456657e-03
 -6.9844793e-03
  7.3233242e-03
 -3.6564419e-01
  1.1543756e-02
  9.6007464e-03
 -1.5050557e-02
 -5.4579112e-04
  5.4166061e-03
 -2.2576544e-03
  2.0294765e-02
  5.9802504e-03
 -1.2681259e-02
  3.1603461e-03
  2.6556940e-03
  6.9817766e-03
 -2.9930231e-01
 -3.7444793e-02
 -2.0123791e-02
  7.9953665e-04
  6.4085945e-03
  2.1108441e-02
 -1.0471391e-02
  1.8115340e-03
  1.6942118e-04
 -5.8223754e-03
  2.5187388e-02
  2.7841898e-03
 -1.9555429e-02
 -6.7137624e-04
  4.5115207e-03
  2.2678886e-02
 -2.1091642e-02
 -3.6111679e-03
 -1.6254136e-01
  6.2122191e-03
  1.7873976e-02
  2.1884313e-02
 -1.9894881e-02
  2.0631032e-02
 -8.9954222e-03
  1.0461075e-02
 -1.1746925e-02
 -8.2871318e-03
  1.2733993e-02
 -3.8377754e-03
  1.1461523e-03
 -7.5919461e-03
 -5.4499361e-04
 -3.3544998e-03
  1.3651503e-02
 -1.0882782e-02
  9.2202825e-03
  9.7694487e-05
  9.4490536e-03
  7.4386932e-03
  2.2645509e-03
 -2.4387115e-03
 -3.1207923e-03
 -1.0263580e-02
 -1.1024647e-03
  1.5074211e-03
 -3.9335275e-03
 -3.6720995e-02
  3.2010628e-03
  7.1234382e-03
 -3.5835702e-03
 -1.3493273e-02
  1.5425192e-02
 -9.0683540e-03
  5.6054769e-03
  5.2236103e-02
 -1.3646898e-02
  1.4979495e-02
  1.1222236e-02
 -1.2796375e-02
 -1.2115609e-02
  2.1997809e-03
  1.7657824e-02
  2.6224025e-02
  2.3594708e-03
  2.6973393e-03
  2.3056249e-04
  2.4744731e-04
  4.4546449e-03
  1.1931818e-02
 -8.1716469e-03
 -1.8794730e-02
 -9.5603755e-03
  9.3781035e-03
  2.1621238e-02
 -3.2833950e-03
  1.2986436e-02
  6.3309916e-03
  2.4258916e-03
 -9.1760289e-03
  6.5257577e-03
  1.6456621e-02
 -1.5834438e-03
  6.6588153e-03
 -2.6168849e-02
 -1.0283588e-02
 -1.0422734e-03
  1.4690986e-03
 -1.4912962e-02
 -4.9906159e-03
 -8.8294344e-03
 -3.2751826e-03
 -2.5332078e-02
  1.9274390e-05
  1.2690717e-02
 -6.4134477e-03
  4.9420162e-03
 -3.5871919e-03
  2.9102452e-03
  1.0956265e-02
  1.1511247e-02
 -5.6808144e-03
 -1.6256873e-02
 -3.3059828e-03
  2.5691283e-03
 -1.0126352e-01
  8.3757052e-03
 -1.4000406e-02
 -5.8913194e-03
  1.7044323e-02
  1.4257569e-02
 -1.0481502e-02
 -2.2308212e-03
  1.9395793e-02
  9.0480931e-03
  1.5284989e-03
  2.4571822e-03
 -7.5589642e-03
 -1.9474049e-01
  4.8892140e-02
 -8.1800455e-03
  9.3159601e-03
  1.1337780e-02
  6.2102438e-03
  6.6929283e-03
  1.9957616e-03
 -1.2364403e-02
 -5.0836033e-03
 -1.0186319e-03
  8.4520830e-03
 -2.1593601e-03
  7.2887698e-03
 -9.0329330e-03
 -1.4380112e-02
 -8.4780017e-03
  2.5836205e-02
  4.6513893e-02
  1.3337865e-02
  8.2336878e-03
  8.6424891e-03
  7.3563117e-03
 -1.0564934e-02
  2.3798407e-03
  3.9021359e-03
 -2.7420884e-03
  5.5157654e-03
  3.4500759e-02
  8.5049476e-03
  9.9953031e-03
 -1.2668182e-02
  3.3235990e-02
  1.0005797e-02
 -1.0102398e-03
  1.0976298e-02
  2.0840809e-02
  7.1927279e-01
 -5.6490167e-03
 -9.4275996e-03
  7.0040114e-03
  2.6498208e-02
 -1.3269497e+00
  1.0101016e-03
  4.9234885e-03
 -6.9755809e-03
  1.6403170e-02
  3.4367256e-03
  2.1696314e-02
 -2.7888818e-03
 -8.1299329e-03
 -9.9371457e-03
 -6.2485626e-05
  4.0415046e-03
 -2.6516758e-02
  4.7479072e-03
 -4.0566511e-03
 -1.0118973e-02
 -2.2543620e-02
 -8.2203792e-03
  1.4631292e-02
  5.6642127e-01
 -9.0684436e-05
 -1.6079785e-02
 -1.0113328e-02
 -1.0796394e-03
  2.7262459e-02
  5.6523304e-03
  9.6744802e-03
  6.4654583e-03
 -1.3655097e-03
  3.0368972e-03
  4.1720548e-04
  1.4046892e+00
 -1.2622167e-02
 -2.3902589e-02
  9.4896562e-02
  1.2338674e+00
  1.1332774e-02
  6.2200301e-03
  7.1393605e-03
 -1.4093895e-02
 -4.7633755e-03
  5.9022205e-03
 -3.5149939e-03
  1.6257307e-02
  7.8730620e-03
 -5.4898667e-03
 -1.7881518e-02
  5.2586205e-02
  1.3012323e-02
 -1.0878501e-03
 -1.1318608e-03
 -1.3718840e-02
  5.7267821e-03
  6.1318553e-03
 -5.2404765e-04
  4.1016837e-04
  2.3531660e-03
  5.8489055e-03
  8.0552287e-03
 -1.8083371e-02
 -3.0528257e-02
  1.6268907e-02
 -4.0289260e-02
 -1.9328397e-03
  2.2356212e-02
  2.9160636e-03
  9.9834790e-03
  7.5264480e-03
  5.4817442e-03
  3.0398581e-02
 -1.7740291e-02
 -1.1882258e-02
 -1.3060614e-02
  2.6812987e-02
  1.3083358e-02
  9.2932384e-04
  4.4861557e-03
  3.3218261e-02
 -1.4940790e-02
  9.9047109e-05
 -8.6073596e-03
 -1.1931324e-02
 -3.6757798e-03
 -1.0223440e-03
  4.4643703e-01
 -1.4236693e-02
  1.3891898e-02
  2.2408130e-02
  1.2738166e-02
  1.9581432e-02
  1.2918707e-03
 -2.5422713e-03
 -4.2382609e-03
  6.3673902e-04
  8.4756566e-03
  7.2004818e-03
  3.3889100e-04
  2.9491382e-03
 -1.7958462e-02
  3.5324875e-02
  5.7885022e-04
 -4.4404380e-03
 -1.7125022e-02
 -7.2696252e-04
  1.1109917e-02
  6.4865476e-03
 -1.4852378e-02
  1.3458106e-02
  6.1512309e-01
  9.7113354e-03
 -7.2490368e-03
 -1.0574459e-02
  1.1073106e-02
 -2.1858921e-03
 -8.9478865e-03
  2.1476958e-02
  3.1317018e-02
  1.0532963e-02
 -4.3165605e-03
  1.4366885e-02
  1.3901974e-03
  2.8004879e-02
 -1.4596153e-02
 -8.2198298e-03
  3.5584918e-03
  3.4132900e-03
 -1.0868797e-02
  8.2430532e-03
  1.5498363e-02
  3.5568974e-03
 -2.1920751e-03
  1.4654962e-02
  2.5255375e-02
  1.1275966e-03
 -8.7625533e-02
 -1.6274421e-02
  1.2355629e-02
 -1.0672807e-02
  9.1341091e-03
 -9.6241182e-01
  6.7190942e-03
 -5.9607611e-03
 -2.0495842e-01
 -3.9833323e-03
  1.3285097e-02
 -1.5725235e-02
  2.0302624e-02
 -3.3355495e-03
 -5.2522304e-03
  2.3808921e-02
 -1.0637050e-04
 -9.2355139e-04
 -3.0972825e-02
 -1.5172187e-02
  6.6753373e-02
  1.6842218e-02
 -1.6407456e-03
 -6.6153379e-04
 -3.5000092e-03
  6.7947520e-04
  1.4186860e-02
 -7.2374693e-03
 -1.2724941e+00
  1.4888605e-01
 -2.9091358e-02
 -2.0369275e-01
 -8.8053541e-03
 -1.7855778e-01
 -1.4276129e-02
 -2.6791230e-01
 -4.7613993e-01
 -3.2925937e-02
 -2.7262079e-02
 -1.2249731e-02
  2.4272783e-03
 -7.2867863e-02
  6.1634928e-01
  1.2051621e-01
 -5.4513687e-01
 -3.6795750e-01
 -1.6786855e-02
  5.1988423e-04
 -1.6835122e-01
  5.1553283e-02
  4.3604749e-01
 -1.0491004e-01
  1.5540178e+00
 -1.3555596e+00
 -1.1476887e+00
  4.2676311e-02
  4.5431245e-02
 -7.4677326e-02
 -1.5045442e-02
 -1.1573423e+00
 -1.1584056e-01
 -1.5962790e+00
  5.6167465e-01
 -1.9358410e-01
 -6.1839446e-04
 -2.3034152e-03
 -6.9324307e-02
  1.8532680e-02
  4.0604848e-01
  7.7121064e-02
  3.7502888e-01
 -1.7807887e+00
  2.7762118e-01
  1.1357788e-02
 -3.7946731e-03
  1.7907610e-02
 -4.8127089e-02
 -1.1148792e-01
  1.4238875e-01
  1.9647595e-02
 -4.8811305e-01
 -4.0212446e-01
  3.7979882e-02
  1.9757695e-01
  1.3396611e+00
 -1.3962147e-03
 -2.1180518e-02
  1.9009008e-01
  1.9858167e-01
  2.8073378e-02
  8.9781135e-03
 -6.6530276e-03
  4.7450443e-04
 -5.1805291e-02
  4.3938458e-03
 -2.5843449e-02
  3.3574428e-02
  9.9269040e-02
  9.2295222e-03
 -9.4528198e-03
 -2.6262039e-03
 -1.4236172e-02
 -1.5362290e-03
  1.7681696e-02
  2.2286363e-02
  1.3117334e-01
 -9.3388231e-03
  2.9911988e-03
  4.1769817e-02
 -4.5886100e-03
 -3.6054868e-03
  1.4884757e-02
  5.0530262e-02
  5.3450996e-03
 -1.6992015e+00
  6.8088368e-02
  4.5431218e-01
  1.3061047e-03
  2.7944227e-03
  3.9089438e-02
 -1.3394729e-02
  1.2504890e-02
  6.1089683e-02
 -1.3525283e-02
 -5.6729045e-02
 -7.7360705e-03
  3.9434303e-02
  1.0204410e-02
  2.5107034e-03
  2.3409112e-03
 -6.2532527e-03
  5.0195508e-02
 -7.1536312e-03
 -1.6412236e-03
  1.5101693e-02
  1.4882967e-03
 -2.2000823e+00
 -2.0945104e-02
 -8.7904382e-01
 -6.2276220e-01
 -2.8110277e-03
  1.0913352e-02
 -1.1108061e-01
 -4.0856507e-01
 -2.0654616e-01
 -2.0049213e-02
  1.7592773e-03
 -2.1646414e-02
 -3.7524719e-03
 -1.2492334e-02
  5.5933435e-02
  2.3063010e-01
  2.7430538e-02
 -1.9785851e-01
  3.7762411e-03
 -8.8105083e-04
 -1.2164342e-02
  5.2754041e-02
 -8.1035467e-03
  8.6576694e-01
  3.7534797e-01
  4.2513984e-01
  7.9105198e-03
  5.2915434e-03
 -2.1390624e-03
  1.0407553e-02
  7.6637310e-03
  1.1499348e-01
 -3.9685812e-02
 -3.8767534e-01
  9.1646749e-01
  2.9777554e-01
 -1.2909648e-02
 -1.3059497e-02
  1.1718540e-02
 -4.4524652e-01
  9.9767437e-03
  1.1272832e-02
 -6.1300635e-01
 -1.2004700e-01
 -3.4842640e-04
 -1.6326779e-02
  5.1960503e-03
  3.1576283e-02
 -2.5570538e-02
 -3.2737751e-02
 -1.8049538e-02
 -4.1507415e-02
  1.4543395e-03
 -8.8821866e-02
 -5.6813457e-03
 -3.4837597e-03
  1.1970238e-02
  1.2342352e-02
 -1.7205459e-03
 -1.4439272e-02
 -1.0706243e-02
 -1.1812829e-02
  4.4607520e-03
  9.7727692e-03
 -1.5060345e-02
 -2.8609668e-03
  3.9069448e-03
  4.1967449e-03
 -5.1444070e-03
 -3.6720987e-03
 -3.3730064e-03
 -9.5529845e-03
  1.1210988e-02
 -7.5343130e-03
 -3.0881958e-04
 -2.1779681e-02
 -3.5226264e-03
  4.1800342e-04
  5.3282310e-03
 -4.9533369e-03
 -1.8359188e-02
 -9.0573775e-03
  2.9723920e-02
  8.4463507e-03
  1.1729012e-02
  2.7202861e-04
 -1.5116562e-02
  9.0279207e-03
 -2.7604653e-03
 -2.0346348e-03
  2.1616020e-03
  4.4647693e-03
  1.0125615e-02
  2.0266678e-02
 -5.7222322e-03
 -6.2151779e-03
 -6.8427827e-03
 -2.7959034e-04
  1.0987184e-03
 -1.5437700e-02
 -1.2283240e-02
  3.9791795e-03
 -1.2753532e-02
 -6.0248608e-03
  3.5139809e-03
 -4.0172343e-03
  1.4878490e-02
  6.7956517e-03
  1.2526013e+00
  3.3755504e-02
  2.7572857e-02
  1.8225136e-03
 -4.9738307e-03
 -1.3427818e-02
  7.9301111e-03
 -1.0844467e-02
  1.8630592e-02
 -9.2379097e-03
 -3.7124169e-03
 -9.2222886e-03
  4.0541841e-03
 -3.7586477e-03
 -1.2757315e-02
 -1.0144860e-02
  1.2255579e-01
  9.2105670e-03
  7.2115439e-04
 -1.1647661e-02
  6.8104669e-04
  2.6729226e-03
 -9.5729530e-03
  1.0877998e-02
  4.5256512e-03
 -2.5240345e-02
  3.9436691e-02
 -5.3119967e-03
 -2.3986636e-02
 -1.0039742e-03
  3.3781953e-02
 -5.2815743e-05
  7.2048423e-03
  1.0589973e-02
  6.6432506e-03
 -5.8399541e-03
 -5.8825244e-03
  3.9176545e-03
 -7.1254908e-03
 -4.3402575e-02
  1.7419819e-03
  7.0032957e-03
 -2.4566269e-03
  1.6462890e-02
 -6.8265502e-03
  1.7408675e-02
 -4.4336272e-03
 -5.1131067e-03
 -1.4096729e-02
  4.0088031e-03
  1.7409762e-02
 -1.3908116e-02
 -3.1577628e-02
  2.9398711e-02
 -3.7577075e-01
 -3.4716243e-03
 -1.7465064e-01
 -2.7398986e-03
 -3.9621949e-02
 -2.1552302e-02
 -1.3778302e-02
  4.0551990e-02
 -4.1032615e-03
 -1.8217767e-02
  7.7898805e-03
  5.1396894e-03
  2.4256886e-04
  1.5758395e-02
 -1.8919506e-03
  1.5819658e-02
 -1.8320287e-02
 -1.6959060e-02
 -1.2721482e-02
  8.3194030e-03
  4.5303844e-02
 -3.8968651e-03
 -9.6132889e-02
 -3.4942552e-02
  1.7282145e-02
 -9.2000999e-03
 -1.5049812e-02
 -2.1977538e-02
  1.5544698e-03
 -1.5832264e-02
  1.8268008e-03
  2.8817803e-03
 -1.4799444e-01
  9.8696665e-04
  2.9185360e-02
  5.8199987e-03
 -9.4312849e-03
 -6.7111184e-03
  1.1362945e-02
  6.7040827e-03
 -1.1548696e-02
 -2.4483954e-03
  6.4755231e-02
 -1.0041062e-02
 -4.1403327e-02
 -1.2523970e-02
 -6.5540097e-04
  9.8827360e-03
  1.1645146e-02
  5.7987445e-03
 -2.0169778e-02
 -8.5182637e-03
 -5.4826173e-03
 -9.2313380e-04
 -2.9507928e-02
  3.8020033e-03
  2.3118751e-03
  1.5791047e-02
  4.4216262e-03
  2.5185149e-02
 -2.1367760e-02
  2.8881431e-03
 -8.2143852e-03
 -6.1914795e-03
  2.6075642e-03
  4.9611043e-02
 -1.2848872e-03
  1.2281676e-03
 -1.3007120e-03
  1.4694297e-02
 -4.8502074e-03
  3.7610702e-02
  7.8508183e-03
  2.2584661e-03
  8.4416308e-03
  8.3095329e-05
 -1.8477439e-03
 -3.3843121e-03
 -7.7769291e-03
  3.1673361e-03
 -1.0065590e-02
 -1.8188784e-02
  1.0224002e-02
 -1.2572324e-03
  1.0578569e-03
 -6.7755072e-03
 -4.5959023e-05
 -1.7994579e-03
  1.4795394e-02
 -4.8086772e-04
 -1.2135079e-02
  2.7331224e-02
  2.1677599e-03
  1.4475903e-02
 -2.1050449e-02
 -8.4357685e-04
  1.4546080e-03
 -1.6342351e-02
  1.8380927e-03
 -1.8513614e-02
  1.5113921e-03
 -1.7331589e-02
  6.1047017e-03
 -2.1871634e-02
  5.3894590e-03
  2.9800143e-03
  2.7036169e-03
 -2.6901014e-02
 -7.3795336e-01
  1.9725075e-02
  3.9926314e-01
  1.3577874e+00
 -1.0190055e-01
  1.0927113e-02
  4.7758797e-01
  3.4266037e-01
  2.8059876e-01
 -2.7868899e-03
 -9.4181998e-03
 -1.8336330e-02
  3.0043030e-02
 -2.5830030e-02
 -8.2028680e-02
 -2.3623995e-01
 -5.3282732e-01
  3.0494553e-01
 -4.1253477e-02
  4.8726457e-03
  3.4974450e-01
 -1.1736727e-02
 -2.4678174e-01
  7.1768832e-01
  9.6666105e-02
 -1.5430278e-01
  1.5665339e-02
  4.0881533e-02
  9.2892423e-03
  2.3277590e-01
 -2.6670631e-03
  3.0487728e-01
 -2.5456395e-02
  5.8270212e-02
  1.4887083e-01
  3.6816280e-02
 -4.1783479e-01
  7.5278677e-02
  3.3981204e-01
  6.9641694e-02
 -1.8131228e-01
  6.1232395e-02
  1.3641764e-01
  7.7240020e-02
  2.4173196e-01
 -7.8356728e-02
  8.3737606e-03
  5.3793904e-03
  9.3647800e-03
  1.0209654e-01
 -1.3408357e-01
  1.2897055e-02
 -7.2268206e-03
  4.2597339e-01
  3.4538493e-02
  2.6633870e-02
  1.1371307e-02
 -7.4900384e-03
  1.7878095e-03
 -2.0349240e-02
  1.4000690e-02
 -4.0724925e-03
  7.7914661e-03
  6.6883600e-04
  4.0638847e-03
 -6.6894921e-03
  6.5541244e-03
  9.2066737e-04
  2.2889279e-02
  3.1412810e-02
  1.7792735e-02
  2.2352967e-02
  1.3622289e-03
 -3.0786705e-03
  1.1230025e-02
 -7.5745778e-03
 -1.7044613e-02
  1.4396629e-03
 -1.0339598e-02
 -2.9388729e-02
  2.9806541e-02
  5.4430421e-03
 -1.6229900e-03
  2.8924039e-04
 -4.5384387e-03
  1.6365182e-01
  3.6245584e-03
  4.7073934e-02
 -3.0879078e-02
  7.0596874e-02
  3.8505814e-04
 -7.2573026e-04
  1.7993618e-02
  2.7620285e-03
  9.8940087e-03
  1.6704196e-02
 -9.1505013e-03
  9.1290474e-03
  2.0698665e-04
 -7.0146052e-04
 -6.6950248e-04
 -1.8302668e-02
  4.4730037e-02
 -4.4372780e-03
  1.0325781e-03
 -1.1415840e-02
  5.7401992e-03
  1.8815143e-02
 -4.1592624e-03
 -5.3716521e-03
 -9.9643424e-02
 -1.1319391e-02
  2.7158322e-02
  5.5080908e-03
 -5.2253556e-02
  1.0990290e-02
 -3.1300357e-01
  1.0703361e-03
 -6.4853937e-03
 -1.2075721e-02
  2.0633875e-03
  6.5166317e-03
 -1.3253110e-02
  2.7682558e-03
  2.2849517e-02
 -1.3238853e-02
  2.9352924e-02
  1.7137712e-02
  3.1471157e-03
 -2.6600496e-03
 -2.3425287e-03
  4.8883888e-03
 -4.5782837e-01
 -4.0638511e-04
 -6.2794886e-03
 -1.0297406e-02
 -3.5505116e-02
 -1.4444085e-02
 -1.8465811e-02
 -1.5808821e-02
  8.3746004e-04
  6.7260109e-02
 -1.2303434e-01
 -1.9435092e-03
  1.3820736e-02
  7.7924291e-03
 -9.0493383e-03
 -3.6032924e-03
  1.7953502e-05
 -1.7066732e-02
  7.2775329e-03
  4.4429740e-03
  1.6354802e-03
  2.6152441e-02
 -1.7779320e-02
  8.5501475e-03
 -4.6770056e-03
 -3.3512019e-02
  1.9962778e-02
  8.4226677e-04
  2.2469375e-02
 -5.2779901e-04
 -5.6006724e-01
 -2.1697027e-03
  1.5366406e-02
 -1.7751927e-02
  3.3756439e-02
 -3.5760865e-02
  1.1423232e-03
 -1.4697801e-03
 -7.3366230e-03
 -7.6850131e-03
  1.9730259e-02
 -1.2206136e-02
 -1.6127720e-02
 -2.4613725e-02
  1.7202960e-02
 -7.7610565e-03
 -4.0616910e-03
 -1.1272280e-02
 -1.7694682e-02
 -8.9420443e-03
 -5.0464406e-04
  1.3821798e-02
 -4.5473031e-03
  3.6996731e-03
  5.5818520e-03
 -1.5245328e-03
 -2.5553838e-03
  7.5996148e-05
 -5.1502963e-03
  1.9936044e-02
 -4.1819797e-03
 -4.9983049e-03
  2.3157988e-02
 -7.6350890e-02
 -1.6427034e-03
 -2.9247627e-02
  7.0783863e-05
 -2.7479571e-03
  1.9459045e-02
  1.7330604e-02
  5.5952813e-02
 -3.3286258e-03
  3.7903846e-03
  7.8505306e-03
  6.8337239e-02
  1.0022474e-02
 -8.4167030e-03
 -8.4989332e-03
  2.8436014e-02
 -5.0399331e-03
  1.6612366e-02
  5.7765394e-03
  1.1603754e-03
 -2.2309434e-03
 -9.2697185e-01
 -3.8276243e-01
 -2.2896256e-02
  2.0982876e-01
  2.1513471e-01
 -6.0769640e-02
 -2.5284633e-01
 -1.2922674e-02
 -8.0004312e-02
 -3.7027181e-03
 -3.9854302e-04
 -5.5154692e-02
 -6.1940119e-02
  1.3281832e-02
 -9.5389038e-01
  4.1367602e-02
 -6.4661749e-02
  4.4325748e-03
 -2.9533980e-03
 -3.3811368e-05
  4.7859523e-02
 -2.1303792e-01
 -9.8257195e-03
  4.6685670e-02
  1.0814495e+00
 -8.5950438e-03
  1.6973870e-01
 -7.6012708e-02
 -2.2228001e-02
  6.3101493e-02
 -1.1311363e-01
 -5.3076488e-01
  1.0215424e+00
  7.9262072e-01
  6.7074132e-01
  2.1665245e-01
 -5.9318105e-03
  3.6533709e-04
  3.1371359e-02
  3.0241176e-02
  3.5817873e-02
 -1.0712873e-01
 -1.3875815e+00
  1.0508205e-01
  6.2378466e-02
 -1.6780831e-02
  9.4787637e-03
 -3.3979015e-03
  4.3163509e-03
 -1.5652762e-03
  4.4241323e-04
  4.1537182e-03
 -9.8087387e-03
  1.6607055e-01
 -4.9990416e-03
  6.2067347e-04
  1.0761724e-02
 -6.3139768e-03
 -1.6718943e-04
  3.4531711e-03
 -1.8765414e-03
  1.4917235e-02
 -6.3840108e-04
  5.1843156e-03
  1.5821917e-02
  1.0310869e-02
  5.3022272e-04
  2.5912807e-03
  7.6359157e-03
 -1.5924638e-02
  1.5387230e-02
  2.6888322e-02
  1.4630780e-02
  4.6651838e-03
 -9.7405827e-03
 -3.2313955e-03
 -1.7964427e-03
 -3.0881062e-03
 -1.5793750e-02
 -3.4597274e-03
 -9.2839723e-04
  4.5154123e-03
 -1.5247269e-03
 -1.0062993e-02
  1.5458517e-04
 -6.8753907e-03
  1.8898385e-02
 -8.9531243e-03
 -4.8156022e-03
  1.4802731e-02
 -4.3429830e-03
 -3.1840783e-03
 -1.5363687e-02
  1.2388327e-03
 -7.1405899e-04
 -1.7795054e-03
 -1.2509098e-03
  5.5287885e-03
 -1.3455260e-03
 -1.0760064e-03
  3.0458993e-03
  1.4790541e-02
  2.3816459e-02
  3.3715989e-02
  8.8822795e-03
  5.2634324e-04
  5.4333950e-03
 -3.6492836e-02
  9.5677096e-04
  2.0862937e-02
 -1.3835358e-02
  7.3317112e-03
 -1.5523081e-02
  4.2295754e-03
 -2.8305659e-02
  4.2895442e-03
  1.2482127e-02
  4.9580722e-03
 -3.2023601e-03
 -5.8681206e-03
  1.3754752e-03
 -8.1558824e-03
 -2.9022053e-03
 -1.2828033e-04
  4.0107630e-03
 -1.7945789e-02
  1.0277637e-03
  7.4099298e-03
 -1.0404019e-02
  1.1811766e-02
  2.5356510e-03
  8.9932280e-03
  5.3944457e-03
  1.4303569e-02
  8.3802827e-03
  5.0047301e-03
  9.2559131e-03
  4.6925265e-02
  1.6725617e-02
  2.5276633e-03
 -1.0796444e-02
  2.8336729e-04
  7.7110096e-03
  2.6518686e-02
  1.4343104e-02
 -8.6837579e-03
 -1.0706410e-03
 -1.0825020e-02
 -2.8390316e-03
 -1.6550628e-02
 -7.6750922e-03
  2.8482480e-02
  6.7767815e-04
  1.9177493e-03
 -2.8293042e-03
 -9.1876299e-04
  1.6340647e-02
 -1.2468731e-02
 -5.9782597e-03
 -3.6861233e-03
 -3.2612326e-04
  1.6852180e-04
 -3.1390605e+00
  5.7162894e-03
 -1.6786259e+00
 -1.6841110e+00
  2.6922303e-01
 -3.1030560e-02
 -3.5980257e-01
 -1.2758031e+00
 -2.6080555e-01
  2.9431990e-01
 -1.0532929e-02
  8.1633598e-02
  3.3295035e-02
 -9.9701958e-04
  1.7649649e+00
  8.9815015e-01
  6.8371010e-01
 -4.4764075e-01
  1.3231101e-02
 -2.6228137e-02
  1.0023485e-02
 -2.7993692e-02
 -4.0299970e-01
  9.9182713e-01
 -2.6114571e-01
 -4.6097700e-02
 -2.4864401e-01
  1.2106954e-01
  1.8277898e-03
  5.8741909e-01
  8.3308764e-02
  2.9102008e+00
  4.3016419e-01
 -5.7558149e-01
  9.0811765e-03
  2.6196507e-01
  3.7121519e-03
  1.0297949e-02
  8.6761406e-03
  1.5873073e-02
  2.2515755e-02
  1.0128132e+00
  2.1568628e-01
  1.4584024e+00
 -5.4667279e-02
 -3.8576197e-02
 -1.8164121e-03
  2.3005927e-02
 -2.0252069e-02
 -2.7073976e-01
  3.0045551e-01
 -4.4534454e-01
 -9.1025629e-04
 -9.9037117e-01
  4.9162063e-01
 -2.0474344e-02
  4.4405885e-02
 -1.3056803e-01
  1.5873416e-01
  4.4992489e-01
  3.3171862e-01
  1.9118296e-02
  5.9846669e-01
  2.2105815e-01
 -5.8152550e-03
  5.3072306e-03
  6.3879699e-03
  2.5979358e-01
  8.9008343e-01
 -2.3233157e-01
  4.0770769e-01
  1.9695689e-01
 -1.4426054e-02
 -7.6927133e-03
 -3.3873850e-01
  1.5255812e-01
  4.6916902e-02
  8.9365937e-02
  5.3962374e-01
  1.4610156e-02
 -6.4784580e-01
  1.1943640e-01
 -8.0738328e-03
 -1.3075656e-02
 -1.7020820e-01
 -6.7010403e-01
  1.4134455e+00
  8.7407315e-01
 -8.9959413e-01
  3.0514291e-01
  1.4665458e-01
 -1.0447491e-02
 -3.4477660e-01
 -9.8002120e-04
  6.9577970e-02
 -1.2926568e-01
 -9.3033469e-01
 -4.1101659e-03
 -5.9951860e-01
  6.2037490e-02
 -8.4370840e-03
  2.1077488e-03
 -5.0982637e-03
  4.1212440e-03
 -6.4721508e-03
 -8.9583807e-02
 -5.0243938e-01
  9.4059473e-01
 -1.1243491e-02
 -3.4482246e-03
  1.9265049e-03
 -4.9307528e-03
 -3.9315257e-02
 -5.4897852e-03
 -3.3674582e-03
 -3.2114364e-02
 -1.3695368e-02
  1.9048568e-02
  2.0761366e-03
  1.5779162e-03
  1.1649634e-02
 -1.0139049e-02
 -8.7400069e-03
  9.5682248e-04
 -7.4463570e-03
 -1.5796222e-02
  3.1478848e-02
 -1.3253255e-03
  3.4049764e-02
 -1.4195228e-02
  8.5667605e-03
 -2.6487149e-03
 -3.8392160e-03
  5.4123537e-03
  1.3218515e-03
  3.9254069e-02
  1.0344924e-02
 -8.7196399e-03
  2.0210451e-02
  9.1387723e-03
 -5.5437274e-03
 -7.8557003e-03
 -1.5210719e-03
  2.9685264e-03
 -3.5136476e-02
 -2.7282578e-03
  6.7351153e-03
 -1.0659659e-02
  7.7573583e-03
 -2.3593777e-03
 -1.0064789e-02
  1.2052963e-02
  1.0994966e-03
  3.5095585e-03
 -5.4465123e-03
  3.0138774e-02
  6.5542543e-03
 -5.1245070e-03
 -2.7911761e-03
  3.0106544e-03
 -2.9705651e-03
  1.1048040e-02
  1.6745828e+00
 -2.2134888e-01
 -2.4099691e-01
  1.5507822e-01
  1.2830811e-02
  3.4556266e-02
 -5.8220695e-03
  4.6624057e-02
 -1.1770864e-02
  3.2150808e-03
  2.8010032e-03
 -9.5814532e-03
 -1.7404415e-02
 -2.5843226e-03
 -1.8115832e-01
 -1.8678997e-02
 -1.9155432e-01
  1.1979761e-03
  2.1477604e-02
 -5.2501196e-03
  4.2935725e-02
  1.8601598e-02
  1.2338466e-02
 -1.9916973e+00
  9.8799607e-03
  4.3333688e-01
  6.9261387e-02
 -1.8902230e-03
  1.2654207e-02
 -7.3204607e-01
  1.3544785e-02
  3.7965879e-01
  6.8486065e-01
 -2.9499725e-01
 -1.8342048e+00
  2.1208481e-01
 -3.4258501e-03
  2.4168964e-03
  4.1010321e-04
 -1.0485865e-02
  4.6783779e-03
 -3.6861785e-03
 -2.5896631e-02
  1.0271415e-01
  4.1389760e-01
 -1.3690967e-03
  2.9943534e-03
  1.9121928e-02
  2.5670000e-03
  1.9794913e-02
 -6.3968927e-02
 -3.0619609e-01
  3.0290219e-01
 -7.7070175e-03
  3.1118461e-01
 -3.3093614e-03
  8.4230721e-01
  1.1862788e-01
 -1.3268970e-02
  9.7746588e-04
 -7.5560007e-03
  8.2633796e-04
  6.8193796e-04
 -1.6650439e-03
 -9.8389434e-03
 -2.2310168e-02
  1.2087435e-02
 -2.7426814e-03
 -1.7448870e-03
 -6.0340606e-02
 -3.9490489e-03
  1.4870288e-03
 -3.6557447e-03
 -1.4643923e-02
  5.9802812e-03
 -2.2217559e-02
 -1.2685794e-01
 -1.0063953e-02
  1.0482357e-01
  6.4960994e-02
 -2.1384957e-01
 -1.9953663e-02
 -1.0856494e-03
  4.6990914e-03
  4.6827625e-03
 -4.1793905e-02
 -4.7432297e-01
 -4.9033370e-03
  8.4036432e-02
 -5.0762255e-02
 -3.8752980e-03
 -7.2275195e-03
 -1.1370579e-03
  6.2440373e-03
 -6.4481743e-02
  3.6489807e-02
  2.0951010e-02
 -2.0878918e-03
 -4.4089478e-02
  8.4898891e-03
  2.6068377e-04
 -3.1134796e-03
 -6.1812350e-03
 -5.5078422e-03
  2.5032389e-03
  7.9685613e-04
 -1.2094960e-02
 -1.5994284e-02
 -1.8030956e-01
 -1.5907754e-01
  8.8859963e-01
 -1.0074232e+00
  1.7025399e-01
 -2.1620976e-02
 -3.5656375e-01
 -7.1053147e-01
 -1.9275574e-01
 -2.5265163e-02
  1.5363072e-02
  3.1137846e-03
  4.9830448e-02
 -1.3047948e-02
  4.0903535e-01
 -3.3822439e-03
  2.3560731e-02
  2.4297421e-03
  2.4668155e-03
 -1.3357749e-02
 -1.6043380e-02
  1.9232940e-02
 -1.0660774e-02
  6.8782173e-02
 -5.0967542e-04
 -6.4314783e-02
 -4.1250405e-03
 -1.5396679e-02
 -1.7117474e-02
 -3.4924522e-02
 -4.7466460e-01
 -4.4782333e-02
  2.0754824e+00
  3.9024419e-01
 -9.7966291e-02
  9.0306062e-01
 -4.6711005e-04
 -1.1052576e-02
 -1.7502571e-02
  2.6066534e-03
  1.8593913e-03
  1.2917787e-01
  3.7479110e-02
  7.8075039e-01
  5.0978415e-02
 -1.4746722e-02
 -2.8483446e-03
 -1.4853399e-03
  3.8183541e-03
 -3.9729707e-02
 -5.2227988e-03
  1.9834785e-02
 -3.8010359e-02
 -1.1165319e-01
 -5.1338147e-02
 -5.4662007e-01
  1.5467963e-01
 -5.1176872e-02
  3.1638139e-01
  1.0701364e-01
 -1.4504257e-01
  4.9072421e-01
  1.9516712e-02
 -2.7683605e-02
 -2.4615757e-03
 -7.7948898e-05
  6.0158033e-02
 -2.8729472e-01
  3.4207601e-02
  8.9682356e-02
  2.9598776e-01
 -5.2457869e-01
 -2.2660960e-03
  1.2907388e-02
 -6.8045253e-01
  1.1004386e-02
  1.1879125e-01
 -2.1363328e-01
  2.4899265e-03
 -4.6521705e-02
 -9.6326277e-02
  1.3047832e-02
  5.4191733e-03
 -1.1028058e-01
  2.3402629e-02
 -1.4753173e-01
 -3.0860388e-01
  9.5964277e-01
  6.9178003e-01
  7.3200613e-02
  1.8927909e-01
  3.3859681e-02
 -4.0348902e-01
  3.3548039e-03
  1.1170036e-01
  1.0689658e-01
  3.0508216e-02
 -4.0101039e-01
  3.2881454e-02
  1.1537141e-02
  1.6864937e-03
 -1.0971313e-03
  3.6468465e-02
 -2.4466775e-02
 -6.6884756e-03
 -3.5050455e-02
  7.5607636e-04
  1.0780511e-02
  8.3929868e-03
  2.5228092e-02
  3.2831315e-02
  2.3250747e-04
  1.2274098e-02
  7.2323700e-04
 -1.3061736e-03
  7.3291487e-03
  2.2045724e+00
 -2.8195533e-03
 -4.3299734e-03
  9.2171449e-03
  4.2633410e-03
 -1.1349394e-03
 -3.2046802e-02
  3.4508872e-04
  4.6774275e-03
 -1.9874571e-02
  4.8612938e-03
  2.9023425e-04
 -3.2477700e-03
 -1.0395277e-02
 -7.7916672e-03
 -1.6963845e-02
 -2.6182095e-03
 -3.4382264e-03
  7.7023697e-03
  9.9031744e-04
  2.9511137e-02
 -2.2213426e-03
 -1.6048830e-02
 -1.9340124e-02
 -8.4126415e-03
  2.2138620e-03
 -3.3003418e-04
  7.8292852e-03
  1.5870137e-03
 -1.2434720e-02
 -8.7536946e-03
  1.1492342e-03
 -1.0917772e-03
 -5.7048774e-03
 -7.5247381e-03
 -4.2309843e-05
  1.0043678e-03
  1.4754655e-02
 -7.9840189e-04
 -4.5893439e-03
  1.7348768e-02
  6.0097841e-03
 -2.0569582e-03
 -1.3357019e-02
 -1.8012188e-02
 -8.1346715e-03
 -5.8781660e-01
  6.2677357e-03
  7.3088294e-01
 -3.6745450e-01
  1.0332270e-01
 -5.1729810e-01
 -5.0388849e-01
 -5.5172604e-01
 -2.2296762e-01
  5.1597324e-03
 -1.7827883e-02
 -1.8381493e-01
 -5.7067636e-02
 -7.8235781e-03
 -8.4129855e-02
 -1.3784165e-02
 -1.4431804e-02
 -2.0387809e-01
  4.7913492e-02
 -1.1460382e-02
 -3.4082387e-02
 -4.3069636e-03
  1.5617687e-01
  1.8692102e-03
 -3.2151759e-02
 -5.9860110e-02
 -2.2785515e-01
  5.5625793e-02
  4.8078600e-04
 -2.4127045e-01
  6.2623894e-01
 -8.5304625e-02
 -9.5982075e-01
 -9.9692047e-02
 -7.4418396e-02
 -5.6845864e-04
 -5.0767866e-04
 -3.2537426e-03
 -3.1405266e-02
 -6.5500187e-03
  5.6312170e-02
  1.7036586e-01
  4.0947101e-01
 -8.1584424e-02
 -6.9122709e-02
  7.4539542e-02
  3.3331857e-04
  8.2547578e-04
 -2.2972221e-02
  1.6461610e-03
  6.6022822e-03
  2.1302219e-02
 -1.7549330e-01
 -5.1956438e-03
  1.3520277e-02
  1.0902734e-02
 -5.4888916e-04
 -2.8460086e-03
 -7.6157679e-03
  6.5628085e-03
  9.1920653e-03
 -1.8050402e-03
  2.2797793e-02
 -1.1403292e-02
  1.6924061e-02
  8.8589117e-03
 -7.0198160e-04
  3.4368001e-02
  4.6961871e-04
  1.2700096e-03
 -1.3491383e-02
  1.0630718e-03
 -1.4505373e-02
  4.1746669e-02
  2.3233132e-03
 -2.5162306e-03
 -7.0667262e-03
 -1.3079938e-02
 -3.4827956e-03
  2.3041142e-03
  1.9352814e-02
  7.8947879e-03
 -1.5849967e-02
 -4.8962366e-02
 -1.6063610e-02
  2.8125853e-03
 -8.1459964e-03
  1.2231711e-02
 -1.0527502e-03
  1.1184808e-02
 -5.5099180e-04
 -1.1789173e-02
 -6.7029893e-03
 -9.7939009e-03
 -1.2581853e-02
 -1.8145914e-04
  5.6427191e-03
 -2.3334602e-02
  1.4752093e-02
  3.8199872e-03
 -1.4401229e-02
 -1.2873927e-03
 -1.8859297e-03
 -3.6648761e-03
 -2.9119600e-03
 -4.8010092e-02
 -8.9845341e-03
  2.5568335e-04
  6.0737072e-03
 -2.1310290e-03
  1.3992352e-02
  5.0030208e-01
 -1.0709846e-02
  3.2773905e-03
 -4.3822523e-02
  4.5289178e-03
  6.3527059e-03
  1.8206602e-03
  1.0307121e-02
  6.3395202e-01
 -8.7724940e-04
  4.2164065e-03
 -1.9010497e-02
  7.0388825e-03
  1.9269153e-03
  9.5983353e-03
  5.5971155e-03
  1.8143866e-02
  1.0392232e-03
 -2.4280854e-02
  2.3911864e-02
  6.2585836e-03
  3.9520752e-04
 -3.2470394e-03
  2.1098349e-02
 -1.8404212e-02
 -8.9371679e-03
 -5.9691183e-03
  3.2718163e-03
  4.8608659e-03
  1.4310030e-02
 -4.1319826e-03
  1.9450261e-03
 -1.3566007e-02
 -5.0615985e-03
 -1.4456140e-02
  7.4455384e-03
 -1.0056050e-02
 -9.6541643e-03
  5.7786296e-04
  2.0973617e-02
 -8.2446849e-03
  7.4053602e-03
 -1.2520043e-02
  7.4590653e-02
 -1.0049558e-03
 -8.8575305e-03
 -1.2607981e-02
  1.6387084e-03
 -2.4245661e-02
  3.4392502e-02
  2.0773144e-02
  7.3909219e-03
  4.6419720e-03
 -1.6557300e-02
  1.6462734e-03
  1.9765174e-02
 -2.1342207e-03
  4.9156956e-03
  1.3826422e-02
 -1.1135519e-02
  1.6387949e-03
 -3.8175152e-03
  1.5257454e-02
 -1.0124721e-04
  2.2911254e-02
  3.8303679e-03
 -1.7378738e-04
  2.6145696e-03
  6.0874773e-03
  5.9278780e-03
  5.9339139e-03
  6.3038375e-03
 -5.6894207e-03
  8.6033158e-03
  7.1859756e-03
  9.9434322e-03
  2.7092868e-03
  1.0300545e-02
 -1.0948422e-02
 -9.2757111e-03
  6.9023599e-03
  1.2737398e-02
 -5.6323339e-03
 -9.7581191e-04
  1.0880466e-02
  1.6255271e-02
 -9.7189164e-03
 -1.4484070e-02
  1.8466402e-02
  3.0167958e-02
  1.1416334e-04
 -5.3392407e-03
 -4.8545329e-03
  6.7245667e-03
 -4.5766104e-03
 -6.2150238e-03
  3.1199340e-02
  4.6307482e-03
 -5.1370833e-02
 -5.3863589e-02
 -6.9131092e-03
  1.4466696e-02
  9.2905005e-03
  2.7727385e-03
  1.4864292e-02
 -2.5130537e+00
  8.4642047e-01
 -1.2005974e+00
 -1.7300653e+00
 -1.8633038e-01
 -3.4238046e-01
 -1.6903419e-02
  7.3155648e-01
 -1.7404424e-02
 -5.4466347e-03
 -2.3933053e-03
 -4.2669084e-02
  7.3006816e-02
  1.3974977e-02
  2.7039227e-01
  4.8713446e-01
  2.1507738e+00
  3.0755714e-01
  7.2164494e-03
 -3.6517258e-03
  3.3802003e-02
 -2.7721658e-01
  2.3958085e-02
  2.5289522e-02
 -8.0234975e-01
 -9.2696398e-01
 -1.2333666e+00
 -9.1707688e-03
  4.4696350e-03
 -8.3406549e-03
 -1.3217874e-01
  5.3541638e-02
  3.2551524e-01
 -4.9892748e-03
 -6.9591641e-01
  6.3601114e-02
  4.9163092e-02
  1.4173666e-02
 -7.3596434e-04
  3.2253161e-02
  8.0947857e-04
 -1.5249182e-02
  4.2336255e-01
  1.2401779e+00
  1.0009374e-02
 -2.5692100e-02
 -4.9199176e-04
 -1.1961883e-01
 -3.1310737e-02
  1.6425727e-02
  4.2299893e-01
  6.4252925e-01
 -6.5702295e-01
  1.0974589e-01
 -4.8873033e-03
  1.2035813e-02
  1.2027847e-02
 -8.1287837e-03
  1.1237914e-02
 -4.6175444e-03
  2.8947560e-02
  3.3430522e-03
 -3.7424609e-03
 -4.1592908e-03
 -5.3801625e-03
 -2.5198037e-02
 -1.4419263e-03
 -2.6517175e-03
 -1.8263130e-02
  6.6143874e-04
  1.2290810e-03
 -3.0560794e-03
  1.9936569e-02
  1.4283299e-02
 -7.6896925e-03
  2.8926611e-02
  9.8153139e-03
 -1.3259065e-02
 -1.6135160e-03
 -9.3027652e-04
 -4.1846964e-03
  1.9268964e-03
 -1.0456470e-02
 -6.9368300e-03
 -4.4985497e-03
 -1.5823949e-02
 -1.0198441e-03
  4.7719516e-03
  7.7537326e-03
  8.1706839e-03
 -1.1837229e-02
 -7.5521609e-03
  4.4978358e-02
  1.8227637e-02
  2.2268711e-02
  1.4149405e-02
  8.3483430e-03
 -1.3343288e-02
 -2.6791692e-03
 -1.9125309e-02
  5.1336107e-03
 -1.2704076e-02
 -1.3267728e-04
  4.3197754e-03
 -7.5511388e-03
  1.3717557e-02
  3.7693991e-03
  1.6123131e-02
 -2.3829584e-01
  6.6761365e-03
 -1.6645182e-02
  2.5385269e-03
 -2.3629718e-02
 -6.7065684e-03
  1.0376216e-02
  3.2239627e-02
  3.2000445e-02
 -2.0026981e-03
 -4.6243126e-04
  2.1064766e-02
 -6.2781060e-03
 -5.6076651e-03
 -2.0576673e-02
  1.5295317e-03
  4.1462271e-03
  1.9464500e-02
 -5.3804656e-03
  1.9948091e-02
  1.2773595e-02
 -1.2738466e-02
 -1.7183826e-04
 -1.1996853e-01
  6.9356430e-03
 -6.8719885e-03
  4.9220927e-02
 -9.2119090e-03
 -2.5451561e-03
 -3.5552199e-03
  5.6224124e-04
  8.0266096e-02
 -1.8515713e-03
  3.5362604e-01
  3.4068618e-02
  1.2745368e-01
 -1.8745614e-03
  5.2674476e-04
  2.3224951e-01
  3.2013718e-02
 -5.1834844e-03
 -3.4959237e-03
  3.9203940e-03
  3.9270087e-03
  1.2001329e-02
 -6.2422263e-03
  1.3833994e-03
  1.7571687e-03
 -7.4791755e-03
  1.2301487e-02
 -2.5303962e-03
  1.7812084e-03
 -1.6372602e-02
 -2.2582826e-03
 -1.8528159e+00
  1.3552201e+00
 -9.2640209e-01
 -7.3701888e-01
 -3.3649421e-01
  3.9881366e-01
 -7.3830746e-02
  8.2093143e-01
  6.0595741e-04
 -5.1877800e-02
 -2.2351723e-03
  6.2772192e-02
 -2.0635620e-02
 -3.8138527e-01
 -1.4356869e-01
 -1.1977775e+00
 -1.1789228e+00
  1.7229347e-01
  1.0233782e-01
  8.0858413e-03
 -1.2107140e-01
 -6.5595454e-01
  1.9602481e-01
 -1.3237678e-02
 -1.3260072e-01
 -4.8241490e-01
  1.2735445e+00
  5.8750188e-01
  1.1258980e-02
 -1.1265131e-01
  1.8815930e+00
  5.6486839e-01
 -1.5561689e+00
  8.6589485e-02
  2.3119936e+00
 -1.9545679e+00
  1.6999041e-01
  1.3209747e-03
 -2.5151558e-02
  2.6583459e-02
 -6.8767887e-01
  8.1902847e-02
 -1.7594688e+00
  4.4907324e-02
 -2.8423640e-01
  2.5292471e-02
 -7.0923199e-03
 -1.9893125e-02
  3.2528251e-02
  2.3788695e-01
 -1.7089231e-02
  2.9317072e-01
  3.9718246e-01
  7.0443712e-02
  3.8581595e-01
  1.0769775e-01
  5.8884990e-01
 -3.5756763e-02
 -2.8267452e-01
 -2.0913959e-02
  8.3454140e-02
  2.9094294e-01
  2.1634435e-02
  2.3325111e-03
 -4.9722209e-03
 -2.4623193e-03
  6.1484389e-02
  2.1034466e-02
  1.0207470e-02
 -6.7374017e-03
 -2.7208624e-04
  1.4687294e-01
 -1.1410173e-03
  5.6352150e-03
 -5.0873910e-03
 -1.5340529e-01
 -2.4660800e-01
 -4.5092337e-02
  9.4300807e-02
 -3.0304003e-01
  6.3995647e-01
 -2.4275326e-03
  1.1899141e-02
  1.4923726e-02
 -2.7825029e-03
 -2.1942642e-02
 -5.7628928e-03
 -1.6945615e-01
  3.6472669e-01
  5.7715040e-01
 -4.3325629e-03
 -1.0383477e-02
  4.5172043e-02
 -4.8933417e-04
 -8.5914172e-03
 -6.7330650e-03
 -9.9571422e-04
 -6.9826983e-02
  9.2833585e-01
  5.6080990e-03
  5.7787041e-04
  5.6188367e-03
 -9.7860000e-04
 -3.2088193e-03
 -1.0261577e-02
  4.3491679e-03
 -4.6525957e-04
 -2.1658263e-03
 -1.0188965e+00
  7.5692338e-01
  2.3742087e-01
 -1.2096387e+00
  1.7288952e+00
 -8.5291833e-01
 -6.6952395e-01
 -2.2588081e+00
 -1.3334050e+00
 -4.1154616e-02
 -1.3356075e-02
 -1.1624915e-02
 -5.1251991e-04
 -1.4080518e-02
  4.3903962e-01
 -1.4723829e+00
  5.4682996e-03
 -4.9995575e-02
  8.4266335e-02
 -5.2781031e-03
 -5.1339042e-01
 -3.2892272e-01
  6.4395058e-01
  9.0835232e-01
 -8.2066131e-01
 -6.9235551e-01
 -6.8063504e-01
 -5.6284271e-02
 -1.9459484e-02
 -3.0607266e-02
 -7.6717627e-01
 -4.0957636e-01
  2.4112291e+00
  5.8078820e-01
  5.4710388e-01
  5.0984693e-01
 -7.6583229e-02
  4.5276731e-03
 -1.6980384e-01
  2.2130154e-02
  1.6067782e-03
 -7.7605374e-02
 -9.5701665e-02
 -1.6530721e-01
  5.3704947e-01
  6.2755556e-03
  1.6762078e-02
 -1.0090124e-02
 -7.6904910e-04
  1.9188558e-03
 -4.3405440e-02
  1.6085954e-01
 -2.2218539e-03
 -1.2198788e-02
 -4.2568957e-03
 -5.3984285e-03
  2.8413027e-03
 -5.5980268e-03
 -3.1121261e-03
  1.7307302e-02
 -1.7685025e-03
  1.7161825e-04
 -4.3336381e-04
  5.2529494e-03
 -4.5052874e-03
  2.8296483e-01
  1.2381698e-02
 -2.7580366e-03
  7.3376782e-03
  6.8098200e-03
  6.9839056e-03
  1.4709425e-02
 -5.6425417e-03
  4.0382738e-03
 -5.0338204e-03
  8.6602503e-03
  6.8269353e-03
  1.8640403e-02
 -2.4819028e-02
  3.3262833e-03
 -3.3554602e-02
  1.7287662e-02
 -1.6763587e-02
 -1.0047074e-02
 -3.9042234e-03
 -2.7756961e-03
 -1.5233591e-02
 -1.3227463e-02
  8.0724334e-04
 -9.6383374e-03
 -7.4075460e-03
  2.5988030e-04
 -9.1277523e-04
 -2.7193333e-04
 -2.1226363e-02
 -1.1893884e-02
 -3.1573533e-03
 -1.5375897e-02
  1.2606593e-03
 -1.4022635e-02
  4.9292948e-04
 -9.0746017e-04
  5.4973024e-03
  6.3549803e-04
  2.9593827e-03
 -6.5512408e-04
 -2.4828715e-03
 -5.2132756e-01
 -2.5470273e+00
  3.9010113e-01
  3.0705363e-01
 -9.9323678e-01
  4.6258494e-02
 -2.4572282e-01
 -6.0502803e-01
 -4.1910711e-01
 -4.4771042e-01
 -2.6328078e-01
 -5.1466823e-03
 -7.2264180e-02
  9.1645177e-03
 -5.1178620e-04
 -7.4535511e-02
 -4.1077763e-01
 -8.2694553e-03
  8.9138061e-02
 -3.0340256e-02
 -1.1486947e-02
 -1.9302577e-02
 -1.2391763e-02
 -5.6059495e-02
  6.0660064e-01
 -1.7404760e-01
 -6.6968292e-02
 -3.5852414e-01
  3.1278145e-01
 -1.6145021e-02
 -1.0899664e-01
  9.6853627e-03
 -3.6065006e-01
 -1.8206646e-01
  6.9168158e-02
  3.1915802e-01
  1.2179243e-01
 -8.0536902e-03
 -1.4713113e-02
 -9.4724447e-03
  7.1164228e-02
  1.3462280e-02
  6.3660829e-03
  2.8648609e-02
  1.5762434e+00
  3.8518450e-01
 -2.4308392e-03
 -1.1121158e-02
 -9.2903404e-03
 -1.7408566e-03
  2.4521030e-02
  4.1705936e-01
  5.9107119e-01
 -5.5338615e-01
 -1.6342191e-02
 -5.5714981e-03
  7.3375674e-03
 -1.0375664e-02
 -5.2866768e-03
  1.7094589e-03
 -5.0640688e-03
  1.9132601e-02
 -1.7547606e-02
  1.5643807e-02
 -2.1569312e-03
  3.8260100e-03
 -3.0598366e-03
  4.1958454e-01
  4.8920321e-03
  3.6887699e-03
  3.6374975e-03
 -3.6656051e-03
  3.2801682e-03
  8.2122600e-03
  4.0655427e-02
  1.6079206e-02
  1.7451406e-02
  6.9768918e-03
 -2.6954687e-03
 -3.1189739e-03
 -1.8836895e-02
  7.1547953e-03
 -5.0833272e-03
 -1.7633228e-02
  1.8372009e-02
  1.1015531e-02
 -1.1443383e-02
 -5.0983066e-03
  9.2927488e-03
  5.4969043e-02
  5.4703653e-03
  1.4213737e-02
  5.1852879e-03
 -4.8908992e-03
 -3.7886607e-03
  2.3344723e-03
 -6.0915321e-02
 -7.9108272e-03
 -4.0003887e-04
  5.9145330e-03
  1.9913800e-02
  1.0500723e-02
  6.4975099e-04
  9.4729187e-03
  7.7365758e-03
 -1.1193098e-03
  1.2135643e-03
  8.0939979e-05
 -6.1478950e-03
  5.7694584e-02
 -2.4137868e-02
  9.1972221e-03
  7.3495335e-03
 -5.1808008e-03
 -1.3927056e-02
  4.9873004e-03
  7.8788893e-03
 -3.7267481e-03
 -2.8566909e-03
 -2.1422539e-02
 -1.0693230e-02
  1.4457857e-02
  8.1594465e-03
 -7.2440426e-03
 -1.7021257e-02
  2.5388053e-02
 -8.1394380e-03
 -1.1957305e-02
 -1.5394256e-03
  1.4492629e-02
 -1.6641190e-03
  1.4018465e-03
  1.1701180e-02
 -1.4004215e-02
 -9.2116641e-03
 -4.2917309e-03
  1.5575892e-02
 -7.4407225e-04
  7.5029312e-03
 -3.1407729e-03
  1.5911059e-02
  4.5507732e-03
  2.9593157e-03
 -4.9643363e-03
  3.3377470e-03
 -6.3942424e-03
 -6.5967455e-03
  1.1144780e-03
 -2.5768325e-02
  1.7812896e-03
 -9.0988455e-03
  2.2000890e-02
  3.6574256e-02
  4.1189892e-04
 -3.6509684e-03
 -2.4271648e-02
 -3.0005861e-03
 -1.0306186e-02
 -1.8184811e-03
  5.4124086e-03
  1.2952702e-02
  1.6435809e-03
 -5.1868323e-04
  1.1372127e-01
  3.7404500e-02
 -9.9243661e-03
  4.4527259e-01
 -4.0145759e-03
  1.4193302e-02
  2.9886417e-02
 -1.0370574e-02
  1.1379790e-02
  1.6310064e-02
 -1.2548857e-02
  1.1626918e-02
  6.3227043e-02
 -1.6672051e-02
  2.3364790e-01
  3.3402315e-04
 -1.5348690e-02
  3.6930684e-02
  5.7931729e-03
 -2.2332488e-02
  3.5638459e-02
  1.1499472e-02
 -1.6485158e-02
  9.1827139e-03
  8.7934718e-02
  1.5033358e-03
  7.5763593e-05
 -6.8574905e-01
 -1.0710472e-02
  3.2114089e-03
 -3.2299776e-02
  1.1387594e-02
  6.5488070e-01
 -2.2884200e-03
  2.9069018e-01
  1.4328776e-01
  1.4002062e-03
  6.6038186e-04
 -6.2108152e-03
  2.3470845e-04
 -1.6354762e-02
  5.6952577e-02
 -3.4245472e-02
 -3.9551938e-01
  3.0174054e-02
 -2.9504359e-02
  5.6581581e-03
  4.5690825e-03
  1.2801045e-02
 -2.0027943e-03
 -4.5906054e-03
 -1.3764180e-02
 -7.2921384e-03
 -1.3306906e-02
 -2.3579686e+00
 -2.7854383e-01
  2.6467962e-02
  9.8701692e-01
  2.3215076e-01
 -1.1087438e-02
 -1.0962892e+00
 -5.2186012e-01
 -1.7684733e-02
  6.7840656e-03
 -1.1778338e-03
 -8.6298168e-02
  4.0155542e-03
  6.2830269e-02
 -3.0224195e-01
  8.5061795e-01
  1.1943954e+00
  6.5713155e-01
  3.9878747e-01
 -7.4018715e-03
 -7.2304800e-05
 -1.0431264e-02
  6.2174652e-02
 -1.1974878e+00
  4.3573245e-01
  8.6231694e-02
 -7.5788698e-03
  7.0341241e-01
  2.0956850e-02
 -1.1471042e-01
 -5.6151998e-01
 -4.6346851e-02
 -2.6658458e-01
 -3.6293209e-01
 -9.5206249e-01
 -6.4293832e-01
  2.6325354e-02
  4.3841535e-03
  8.7834429e-03
 -6.3495070e-01
  4.5793392e-03
 -3.8276908e-01
  1.0550816e-01
  1.0500997e-01
 -6.8900484e-01
  9.3213156e-02
 -3.1555586e-03
 -2.4734771e-02
 -2.4852687e-02
  1.0170615e-01
  2.5934244e-03
  4.3691684e-02
 -1.2065887e-02
  3.4018749e-01
  9.1108823e-01
 -2.3429552e-01
 -1.4570824e+00
  2.9541174e-01
  6.5726179e-01
  1.6379672e-01
 -7.1973786e-02
 -1.0294731e+00
 -4.1972005e-01
 -3.8295433e-02
  4.9936674e-03
 -6.2695621e-03
  4.0597871e-02
 -1.2169712e-01
 -3.7244847e-01
  1.5752901e+00
  4.2750525e-01
 -1.0573406e+00
 -2.3424463e-01
  1.0787946e-03
 -5.1510222e-02
  2.3920399e-01
  9.1980197e-02
 -8.6074416e-03
  1.4008594e+00
 -2.4324830e-01
  1.6743180e-01
 -4.0210515e-02
  3.3989428e-03
 -8.5905802e-01
  2.4910013e-01
  2.8514981e+00
  7.3147017e-01
 -3.5060528e-01
  6.5690351e-01
  1.7008050e-01
 -6.7674682e-02
 -2.8571354e-03
 -3.7681597e-01
 -2.2001629e-01
 -4.9399436e-01
  1.0366178e-01
  1.5508573e-01
  1.3221785e+00
  6.5391129e-01
  1.8905325e-02
 -2.1151975e-02
 -1.3208582e-02
  3.5886720e-02
 -3.1875798e-01
 -2.5632368e-02
 -3.0367792e-01
  7.6763466e-02
 -4.5714766e-01
  1.7997630e-04
  3.9484157e-04
  1.1391416e-02
  7.3228204e-03
  1.2071443e-02
 -7.9723328e-02
 -3.1575538e-02
 -4.8142798e-02
  3.5251083e-03
  5.9430555e-02
 -3.1836634e-03
 -3.0350154e-03
 -2.6441252e-04
 -7.0995432e-03
  2.4111848e-03
  4.9200520e-04
 -3.1235658e-03
 -2.4391946e-03
 -8.7261871e-03
 -1.0988583e-02
 -3.0695757e-02
  4.5649614e-02
  1.8557131e-02
 -1.2955316e-03
 -1.4687440e-01
  1.5877308e-02
  1.8360935e-03
 -3.1700563e-02
 -4.2335507e-03
 -2.2410428e-02
  8.5887443e-03
 -2.6810663e-02
 -8.2060480e-03
  1.2223496e-01
 -1.6904494e-02
 -2.5309840e-02
 -1.5565023e-02
 -1.3823524e-02
  8.7106694e-03
  1.9838171e-02
  7.2739483e-03
  4.5301700e-03
 -7.3197400e-03
 -3.8087720e-03
  5.6625637e-03
  1.6531907e-02
 -1.6898770e-03
  2.2360917e-02
 -1.1714878e-02
  2.9860656e-03
 -2.6503315e-02
 -1.6056931e-02
  2.9717876e-02
 -1.0107609e-02
 -1.0584211e-02
  1.1800944e-03
 -2.9192599e-02
  1.3065152e-02
 -2.2357872e-02
  6.7035384e-03
  2.6111456e-03
 -6.8435953e-03
  7.9128839e-04
 -4.2883200e-03
  1.9448681e-02
 -1.0351126e-04
 -1.5366619e-03
 -3.2804348e-03
 -5.2993032e-03
 -1.0547739e-02
 -2.1102566e-02
  5.6163622e-03
  6.9534876e-03
  2.0124386e-03
 -1.6310224e-02
 -5.1957658e-03
  4.5873341e-03
 -3.5324343e-03
 -4.8188804e-04
 -1.3497132e-02
  4.0611061e-03
 -8.8236863e-03
 -4.5767473e-03
 -3.6554161e-02
 -5.0910623e-03
  3.5389180e-03
  3.2836511e-03
  2.8797755e-02
 -2.5981918e-02
  1.1663153e-02
 -1.5084657e-03
  9.9546323e-03
 -3.2131381e-03
  3.4301714e-03
 -3.0461329e-03
  2.4638362e-02
  3.8737950e-03
 -2.1281723e-02
 -6.2143435e-03
  7.3139486e-03
 -4.4386815e-03
 -2.7593205e-02
  3.2875806e-03
  1.2159062e-03
 -4.5400984e-03
  3.8583413e-02
 -8.2968706e-03
 -2.3639863e-03
  7.1767095e-04
 -1.2609324e-03
 -2.1262832e-02
  6.9786329e-03
 -9.5003508e-03
 -8.8322703e-03
  4.0432511e-04
  1.5314010e-02
 -2.3744537e-02
 -8.9617446e-03
  4.1812833e-05
 -7.5072143e-03
  1.3209732e-02
  4.3621229e-04
  7.2145066e-04
  1.2477838e-03
  3.2402955e-03
 -2.1651257e-02
  2.6005495e-03
  6.2216478e-03
 -1.3119025e-02
 -1.9672478e-02
  5.5312845e-03
  8.7059839e-03
 -6.0189175e-03
 -2.2380816e-02
  1.7358895e-02
  6.8945666e-03
  5.0982699e-04
  6.1141305e-05
 -2.1121087e-03
  5.5668228e-03
  5.1016207e-03
  1.0205504e-02
 -6.6363825e-03
 -8.5660713e-03
 -6.3547012e-03
  2.7498442e-03
  7.1078669e-03
  9.4475541e-03
  1.1991590e-02
  2.6105368e-04
 -4.9885171e-03
  3.5835474e-03
  3.5578091e-02
  1.8530395e-02
  3.8833238e-04
  2.3590880e-04
 -1.2110136e-03
 -1.2390306e-02
  6.8215295e-03
 -6.0113058e-03
 -3.5288322e-03
  1.8616231e-02
 -2.8743213e-01
 -4.4722157e-03
 -4.1719326e-01
  5.1029170e-01
 -1.7990930e-01
  9.7466018e-03
  2.5796768e-01
  7.2451478e-01
  2.8305633e-03
  5.1378401e-04
  2.3252662e-02
  7.5198808e-03
 -1.8113639e-02
  1.9520430e-02
  2.9929308e-03
  3.8816698e-02
  7.4532509e-02
  3.2823691e-01
 -1.5958169e-02
 -1.8292915e-02
  1.8983839e-01
  4.5134101e-02
 -1.2763806e-01
  4.0159836e-01
  2.8300199e-01
  7.6366492e-02
  1.5615962e-02
  5.5022500e-03
  3.2103630e-03
  6.8247139e-02
  9.8103536e-03
 -7.5891364e-01
  7.1270698e-01
  2.0922062e-01
 -1.1438981e+00
 -7.7487431e-02
  5.5107386e-03
  7.3222392e-03
  1.2638379e-02
  1.8574358e-03
 -4.6348451e-03
 -7.2367322e-01
  3.6209556e-01
  4.1668800e-01
  9.9702813e-02
 -2.8067295e-02
  3.2261624e-03
  1.3318664e-02
 -2.4075161e-03
  2.8008574e-03
 -1.3913480e-02
 -2.4957895e-02
 -4.3380298e-02
  4.5484421e-03
 -8.3509239e-04
 -8.9205042e-02
  9.2292186e-03
  9.5009133e-03
  7.2616823e-03
 -1.6467992e-02
 -2.9386075e-03
  8.6895661e-06
 -1.1606107e-03
 -5.6208782e-03
 -9.5710158e-03
  2.6271802e-03
 -6.7731561e-03
 -1.2225111e-02
  1.9945389e-02
 -1.3231200e-02
 -1.3191651e-02
  2.2800561e-02
 -8.5836602e-03
 -1.0593660e-02
  5.0525581e-03
 -8.8337874e-03
 -2.3149427e-02
 -3.9762465e-04
 -1.3147193e-02
  2.6405966e-02
 -1.2960444e-02
  5.9653289e-04
  3.9358195e-03
 -4.3201926e-03
 -1.4703734e-02
  1.9630600e-02
  1.0840829e-02
 -6.5980223e-04
 -3.9500773e-02
  1.2687457e-03
 -8.0793137e-03
  2.0733060e-02
 -7.5345545e-04
 -8.0848765e-04
 -5.7920604e-03
 -6.0290061e-03
  1.6961398e-02
  3.1660360e-03
  6.8931311e-02
 -5.4115108e-03
  4.0463312e-03
 -1.8480358e-03
  1.7861005e-02
 -5.3661498e-03
  1.1516742e-03
 -1.0495856e-03
 -3.1212645e-03
 -4.2308178e-03
  4.5675859e-02
  2.5271791e-01
  5.2425718e-01
  7.3353145e-03
 -2.0469680e-01
 -4.6270892e-02
  2.7467927e-01
  3.7338868e-02
  3.3292887e-01
 -4.2406920e-02
 -3.0864085e-04
  3.3094093e-01
  3.5024580e-01
 -3.9106525e-02
  4.0466648e-02
  1.5349014e-03
 -3.3096977e-02
  2.3614876e-03
 -3.4080667e-03
  9.2676222e-02
  6.6676967e-02
  1.8081239e-01
 -1.2505139e-01
 -6.0528512e-03
  9.6713402e-04
  2.0364368e-02
  5.7999206e-01
 -1.7547477e+00
 -8.7038679e-03
  2.0238252e-01
 -4.3427544e-03
 -3.9746082e-01
  4.6698812e-02
  5.9877747e-01
  2.6991501e-01
  3.9177015e-03
  4.3430828e-02
 -1.3517247e-02
  3.6182833e-01
  6.7086391e-02
  7.7201920e-03
  3.7386328e-01
  2.8690684e-01
  4.0604547e-01
  9.5486365e-02
 -3.0390747e-02
  2.2599256e-02
  3.0192809e-02
  2.3896308e-03
  1.2506372e-02
 -5.7407035e-03
  2.9637223e-01
 -1.1742430e-01
  3.3782225e-02
 -1.6390152e-01
  5.9901148e-01
 -2.0504998e-01
 -8.5196650e-01
 -7.7210623e-01
  2.8758198e-03
  5.5806991e-03
 -1.0470194e-01
  4.1438054e-02
 -3.8769761e-01
  1.0329233e-02
  2.3303540e-01
  2.2565961e-01
 -2.0973726e-01
  4.3798018e-01
  3.8433525e-01
 -7.2127067e-02
 -3.3916503e-02
 -4.8572716e-01
 -2.0955002e-03
  2.7902266e-01
  9.2006333e-02
 -8.2666278e-03
 -1.1764870e-03
  5.1649255e-01
 -2.2108537e-01
  4.6142256e-01
 -6.5562636e-02
 -8.0278143e-04
  3.1188259e-02
  4.4132225e-02
  5.2374405e-01
  4.9389324e-01
 -2.0767497e-03
  8.4329200e-01
  9.7798538e-01
  3.6876712e-02
 -8.6382385e-03
  3.1146237e-01
  3.3958059e-02
 -7.3914379e-02
 -5.1564746e-02
 -4.5682618e-01
 -2.5896016e-01
  2.9176757e-01
 -9.8523878e-02
  1.4849376e-02
  9.5521985e-03
  4.6312843e-02
 -4.8780623e-03
 -1.0137183e-01
  1.3095057e-01
 -1.3353722e-01
  1.1946988e-02
 -2.2069564e-02
 -9.5061511e-03
 -2.3991195e-02
  5.0192028e-03
 -3.2640877e-03
 -1.4432619e-02
  8.9813984e-04
  2.3042534e-02
 -9.1878381e-03
 -3.1396411e-03
 -2.6576929e-02
 -6.9748773e-03
  6.8085385e-03
 -6.8430188e-03
  5.9212996e-03
  4.4650892e-03
 -1.0615702e-03
  1.4777805e-01
  2.3457541e-03
  9.0686651e-03
 -4.9409561e-04
 -1.0142581e-02
  3.1403717e-01
  3.4092885e-01
  2.0976482e-02
  1.5426857e-03
 -6.1271504e-02
  4.4072806e-03
  1.6253479e-02
 -2.1121327e-02
 -3.9624437e-03
 -6.6719842e-03
 -1.8796147e-01
 -8.4880948e-02
 -3.0715254e-01
 -2.1730755e-02
 -8.6193271e-03
 -8.7240711e-03
 -1.2636022e-02
 -2.9648619e-02
 -9.0731727e-03
  1.8099971e-01
 -7.7363893e-02
 -4.0914332e-03
 -3.7028254e-03
 -3.8452372e-02
  1.4634802e-02
  6.9884174e-03
  1.3487720e-02
  2.3004320e-02
  4.3724356e-03
  2.6919577e-02
  5.7732249e-03
 -5.5958331e-02
  1.1498095e+00
 -1.3383757e-01
  2.1088004e+00
  1.8131821e-01
  5.0778961e-01
 -4.2861831e-01
 -6.0773236e-01
 -1.4310060e-01
 -6.8000829e-01
  3.1482439e-02
  5.7672583e-03
 -2.3779277e-02
  3.7028708e-02
  4.2346025e-01
  8.8739508e-01
 -1.3055072e-02
  1.1024064e+00
  4.9899936e-02
 -2.2884814e-01
 -8.3038127e-03
 -1.4662449e-01
 -3.0351412e-02
  6.7294100e-03
  9.1243255e-01
  7.1469536e-03
 -1.0187092e+00
 -1.1036122e+00
 -7.3448338e-02
  2.8399866e-02
  1.8266698e-03
  4.6712756e-03
 -2.8560841e-02
 -1.0085980e-02
  7.0549941e-01
 -3.4426290e-01
 -1.8189412e-01
  7.6544620e-03
  6.1516655e-03
 -1.0479538e-01
 -1.3141700e-02
  2.2068404e-02
  5.7425702e-01
  1.3770746e-01
  2.8873849e-01
 -3.2099579e-02
 -3.8660070e-01
 -2.7107162e-02
  3.5247944e-02
  1.4970684e-02
 -2.7307025e-01
  9.9614084e-02
  2.2550905e-01
 -8.8050032e-01
 -5.8282062e-02
  1.2077413e-02
  1.2425244e-02
  1.5257842e-04
  9.4127990e-03
 -1.9259494e-03
  5.2914489e-03
 -6.1440794e-04
  2.9220149e-02
  9.8913182e-03
 -3.1413429e-03
 -4.8368471e-03
  1.9572457e-02
  4.7766794e-02
 -7.8602228e-03
  3.4203589e-02
  1.3640972e-02
 -4.8107412e-04
 -1.5340223e-02
  3.8863125e-03
  1.0020409e-03
  2.4004076e-02
  7.4639344e-03
  2.6782590e-03
  1.4443282e-02
  3.3582997e-02
  1.1130832e-02
 -1.4313943e-03
  7.3709627e-05
 -1.1785837e-02
  4.6637063e-03
  1.6891984e-03
 -1.9980562e-01
 -8.6308545e-01
 -2.5807285e-01
  4.3209395e-03
 -1.1276654e-02
  1.0030999e-02
  4.6497341e-03
 -4.5667719e-03
 -7.3139952e-03
  2.7192663e-03
  1.6026609e-02
  8.4564732e-03
 -1.1695273e-02
  1.1310910e-02
  1.8386892e-03
 -3.4450459e-01
 -6.1016050e-03
  3.6083258e-04
 -1.0916029e-02
 -2.0311940e-03
  9.7121461e-04
  5.6432228e-04
 -2.3879198e-04
  2.3447685e+00
  3.6029038e-01
  7.2658747e-02
  1.9278481e-04
 -6.0602456e-01
 -1.6099499e-01
  1.6118505e+00
  1.4634584e+00
  1.0430031e-01
 -1.3184300e-01
 -3.8988963e-03
 -4.8008133e-03
  4.0156856e-01
  4.2408305e-05
  1.6192738e-02
  2.3982296e-02
  5.7915086e-01
  9.9019015e-01
  3.3771750e-01
  1.6690694e-02
  5.9094097e-02
 -6.6022639e-04
  5.0018739e-02
 -9.6924435e-03
 -4.5120019e-01
 -4.9921530e-01
  4.0908739e-01
  1.0836480e-02
 -4.2929481e-05
  7.6705450e-03
 -1.5250946e-03
 -3.9934745e-01
  3.6807561e-01
 -4.0133607e-02
  2.8703755e-01
 -1.0578971e-01
 -8.1164611e-04
  7.7415351e-03
  2.0718934e-01
  7.3858969e-02
  1.1850311e-06
  1.2183182e-02
 -6.1119747e-01
 -4.1315621e-01
  3.8119901e-02
  1.2247609e-01
 -2.0208235e-03
 -5.2350748e-02
 -4.6795919e-03
  3.1416345e-01
  5.9209336e-02
  2.0890202e-01
 -1.5714707e-02
  3.2946554e-01
  3.9189215e+00
 -6.2734085e-01
  1.6163882e+00
  1.6864247e+00
 -5.4964893e-02
  8.6638772e-01
  1.7558603e+00
  8.5468048e-01
  8.9867127e-01
 -1.4674323e-02
 -8.8197188e-03
 -6.5793619e-03
  1.0209972e-01
 -4.2223439e-02
  2.4057617e-03
  2.7322537e-01
  4.0475556e-01
 -2.7338346e-04
  6.3391846e-01
  7.1724085e-03
  4.7322494e-01
 -9.0087773e-03
  1.7346570e-02
 -3.2253673e-03
 -4.6063561e-02
  6.0339433e-01
  2.9486209e-01
 -3.8566029e-01
 -7.2442386e-03
  6.1825907e-01
  1.3020629e-02
  5.0787246e-03
  3.7846912e-02
  6.3861722e-01
 -2.7313588e+00
  6.4309579e-01
 -6.6685537e-04
 -1.7011805e-02
  1.4658018e-03
 -5.4122403e-02
 -4.8848754e-01
 -1.5828547e-01
  1.6433724e-03
  7.7791280e-01
 -4.0986922e-01
 -6.0515013e-03
 -7.5979200e-03
 -2.4820633e-01
 -7.6738787e-03
  5.8487278e-01
 -4.0221682e-01
 -1.4815488e-01
  9.2262018e-01
  5.6185180e-01
  2.0157970e-01
  1.5366334e+00
  5.9711605e-01
 -1.4352913e+00
 -1.0564774e+00
 -6.2439632e-01
  7.0733738e-01
  9.6196979e-01
  1.5650164e-02
  8.9547578e-03
 -7.2611435e-03
 -9.1129076e-03
 -1.3653743e-02
  1.2062334e-02
 -2.5778705e-01
 -1.4951502e-01
 -5.6434333e-01
  9.8754442e-04
  7.7803233e-03
  6.9274367e-03
  4.9571835e-02
 -5.6441065e-02
 -6.7500784e-03
 -1.4282494e+00
 -1.3010710e+00
 -3.6287848e-02
  4.1324234e-01
  4.0641150e-01
 -4.3403548e-03
  6.1980456e-02
  5.3105581e-01
  1.3356851e-01
  9.0585202e-02
  1.4733834e+00
  1.3940233e+00
  3.3573693e-01
 -1.0635010e-01
 -1.6177371e-02
  2.1625873e-01
  1.5319705e-02
  1.6201263e-03
 -3.4857016e-02
  2.4760807e-02
  3.6853591e-01
  3.0230799e-01
  1.0508471e-02
 -8.6588636e-03
 -3.0004514e-02
  6.8411184e-04
 -4.0937634e-03
  1.8097353e-01
 -8.5706385e-03
  1.2269365e-02
 -3.6324328e-03
  2.2135892e+00
 -3.5338792e-01
 -1.1217993e+00
  4.7489500e-01
  7.0934689e-01
  1.0523482e-03
 -2.0612063e-01
  8.8958727e-04
 -4.4079544e-03
  2.6341740e-02
 -1.1190166e-03
 -1.0435443e-02
 -8.6955838e-03
  6.4492538e-03
 -4.6249858e-01
  1.1300547e-03
 -6.4901270e-02
 -9.5544858e-03
  2.7641468e-03
 -2.8960627e-02
  1.2849489e-02
  6.1653677e-02
  4.5593798e-01
 -1.0189826e-01
 -2.9219158e-03
  2.2807439e-01
  7.1952003e-01
 -2.7771858e-03
  6.3891602e-03
 -8.8411886e-03
 -9.7620469e-03
 -2.1789771e-02
 -3.1663723e-02
 -6.3322163e-01
 -1.1856705e+00
 -1.3815953e-02
 -3.8055252e-02
 -3.4994600e-04
 -3.0010084e-03
  4.2646895e-03
  2.6369464e-02
 -5.2458256e-01
 -7.4084207e-02
  1.9993374e-01
  1.8910740e-02
  1.5648305e-02
  1.5657807e-04
 -2.7924913e-03
  5.5806511e-03
  4.9235411e-03
 -3.8204327e-02
 -4.6259332e-01
  5.2380872e-01
  6.6226490e-02
 -1.3298918e-02
  4.4479815e-04
 -2.4148580e-03
 -1.3720456e-03
  4.2830994e-03
  6.3700536e-03
 -2.4648719e-03
  1.1537544e-03
  7.9287123e-03
  1.6064908e-02
  1.0732478e-02
  1.1693367e-02
 -7.9595270e-03
  3.3629003e-03
  3.3223117e-03
  1.6650302e-02
  2.5300402e-03
  5.9565069e-04
 -1.6420922e-04
  4.7282870e-03
 -4.7035675e-02
 -1.6202882e-02
 -1.1505040e-03
 -2.6000899e-03
  9.1147877e-04
  9.9854432e-03
  9.8515069e-03
  6.4982423e-03
 -1.7285600e-03
 -1.3271511e-02
 -4.0878486e-03
  8.3570922e-05
 -2.0964341e-02
 -8.6882086e-03
  4.6439497e-03
  1.1174687e-02
 -9.5922975e-03
  2.4103090e-02
  1.1343154e-02
  5.6714105e-04
 -1.1924748e-02
 -1.2218906e-04
  2.8182017e-02
 -1.1726439e-02
 -1.0472805e-03
  1.4717813e-02
 -7.6894085e-03
  1.5153183e-02
  2.7155678e-04
  2.3879809e-03
  1.0445083e-02
  6.3634855e-03
  4.4860574e-03
 -1.6619394e-02
 -1.2605059e-01
  7.5992209e-01
  1.8317049e+00
 -1.0041753e+00
  3.2455963e-03
 -7.2599977e-02
 -3.1578636e-03
  3.6108336e-01
  2.9411519e-02
  6.9712526e-03
  1.5761727e-03
 -1.6695010e-02
 -2.0107478e-01
 -4.4883449e-02
 -5.6468737e-01
  4.3937770e-01
 -1.6425741e-01
 -5.8098000e-01
  2.6521234e-02
  9.2501938e-03
 -3.2294309e-01
 -4.2576957e-02
  1.8867759e-01
 -6.2377584e-01
 -9.6537517e-03
 -6.6280800e-01
 -3.5364592e-01
  1.6720431e-01
 -4.9583569e-02
 -2.3525561e-01
  6.9577336e-02
 -2.1088745e-01
  2.2250938e-01
  2.1563698e-02
  3.7947887e-01
 -8.7404609e-01
  2.1663791e-02
  1.4301647e-02
  1.4252630e-02
  1.1400531e-01
  1.6467638e-01
  4.2215413e-01
  8.6241078e-01
  1.1796042e+00
  9.0917526e-03
  6.5588437e-02
  2.3217971e-02
 -1.6405025e-02
  8.8674622e-03
 -3.5939675e-02
  3.0083913e-02
  3.8135573e-02
 -6.5004754e-01
  9.0832617e-03
  3.0159518e-01
  5.0641680e-03
 -2.0593050e-01
  4.1434746e-03
 -1.8089274e-02
  2.5286785e-04
  3.2996662e-02
 -3.1193222e-03
 -1.0157091e-02
 -1.2888419e-02
  8.3033601e-03
  8.2672592e-03
 -1.6629952e-03
  1.8017551e-02
  1.7500848e-02
  1.6451573e-02
 -9.4221449e-03
  3.3332203e-03
 -3.5899687e-03
 -1.0988658e-02
 -1.4370555e-02
 -1.8668665e-02
 -1.2361603e-02
  3.9364726e-04
  2.4429273e-03
 -5.5380929e-03
 -5.5010426e-03
 -1.4113740e-02
 -9.0548187e-04
  1.8271700e-03
 -6.4268983e-03
  9.5000388e-03
 -1.2757429e-02
  6.3618280e-02
  1.5985271e-02
  3.9181892e-02
 -1.2577385e-01
 -1.0576678e-02
  3.9031856e-02
  4.3648807e-03
 -9.1908211e-03
  9.6379099e-03
 -7.0861503e-03
 -4.9586564e-02
  9.6053891e-03
  5.4068025e-03
 -9.9409400e-03
 -1.6718965e-02
  3.7173729e-02
  2.0670518e-02
 -9.8043645e-04
  1.2028110e-02
  2.5522254e-02
  5.1916707e-03
  5.0494540e-03
 -1.7697783e-02
  3.0792581e-03
  3.0875241e-03
 -9.6105346e-03
  8.0426596e-03
  9.6456073e-03
  7.8947525e-03
 -1.2981361e-02
 -1.5736990e-02
  1.1090919e-02
 -3.6002717e-03
  6.3839089e-03
  1.9690901e-02
  7.9468312e-03
  6.8402318e-03
 -2.8484382e-03
 -8.7394724e-03
  2.4789421e-02
  3.6421742e-03
 -2.3149308e-02
 -9.5950570e-03
 -2.8520383e-02
 -7.6761292e-03
  2.1619836e-03
 -7.2358018e-03
 -1.3897136e-02
 -6.1673769e-03
 -4.4185151e-03
  1.3571985e-02
  4.2388304e-03
 -7.1785548e-03
 -3.9387029e-02
 -3.9596357e-03
  1.7311642e-02
  1.9435466e-03
  1.5073657e-02
 -1.9294631e-02
  2.3260668e-03
  1.7210057e-02
 -1.1702873e-02
  5.0949369e-04
  1.6199252e-02
 -3.0451266e-02
 -5.0413632e-03
 -1.6221995e-02
 -6.6508714e-04
 -2.9011942e-03
 -7.9363072e-03
  8.1651554e-02
  4.6561384e-03
  9.7835567e-03
  5.6229918e-03
  1.9934426e-04
  5.8335412e-01
 -2.7258262e-01
  2.9267618e-01
 -3.5251418e-01
 -2.8741831e-01
  7.4506053e-03
  3.1619027e-01
 -2.7535906e+00
  3.4144390e-02
  4.5186665e-02
  1.4706482e-02
 -1.0720866e-03
  6.3681500e-03
  2.4014097e-03
  4.8131920e-02
  4.4588196e-01
  3.0599738e-02
 -1.8151109e-01
 -4.8928104e-02
 -8.5723158e-03
 -2.2290450e-02
  1.4481340e-01
 -1.0484866e-02
  3.3105442e-01
 -4.7340402e-03
  5.8458848e-03
  3.7230711e-02
 -3.4736717e-01
 -1.1614773e-02
  2.6432821e-01
  8.0031776e-01
  3.6548236e-01
 -2.7004392e+00
 -1.3550629e-02
  1.9704151e+00
 -2.6406910e+00
 -4.0169489e-03
 -2.0768503e-03
 -1.1766129e-02
  7.3953830e-02
  1.0608577e-01
  1.4173165e-01
  1.1123542e-01
 -1.5171695e-01
  4.2262048e-01
 -6.6744857e-03
  1.4162722e-02
 -3.6401153e-02
  9.8047396e-03
 -2.3386395e-02
  1.4927685e-03
 -2.0973925e-02
  6.5547479e-03
 -3.7879437e-02
  9.8916419e-02
 -1.5520123e-02
 -7.6459758e-02
  7.7923755e-03
 -1.0215601e-01
 -1.1450641e-02
  2.7703086e-01
  3.1759712e-01
  2.0690127e-03
 -2.3655365e-03
  4.4055437e-03
  5.5459492e-02
  2.0536888e-01
  9.1460943e-03
  1.8163044e-02
  9.2902761e-03
  2.7965380e-02
  3.5639888e-01
 -2.5832510e-02
 -1.2500836e-03
  7.5220630e-02
 -3.1920988e-02
 -2.1480453e-01
 -5.1291797e-02
  7.3930129e-02
 -2.3528405e-01
 -3.5448052e-02
  5.1788133e-02
  5.8546895e-04
  2.6487175e-01
  4.2055771e-03
 -6.4732291e-02
  5.0921611e-02
 -5.1436323e-01
  3.8471973e-01
 -4.0581245e-02
 -6.3884296e-03
  2.6732815e-02
  8.2946293e-02
  6.3384962e-03
  2.8076191e-03
  2.5725635e-03
 -4.6773160e-01
  1.0850877e-01
  3.8208213e-01
 -1.4735954e-02
  1.2545522e-03
  1.3804466e-02
 -1.5875790e-03
  6.5864651e-03
 -3.7715767e-02
 -1.5747312e-02
  1.6714415e-03
  2.8431151e-02
 -4.3864071e-01
 -4.1465148e-01
 -1.8946097e+00
  3.3142582e-01
  7.5416553e-01
  8.5023272e-01
 -1.4153141e+00
 -3.4683897e+00
 -1.0359027e+00
  1.0046165e-01
 -1.0027756e-02
  5.3427932e-03
 -1.8129997e-03
 -1.2173494e-02
  1.0774508e+00
  1.2021852e+00
  5.7070982e-01
 -3.8800146e-02
 -1.9391648e-01
  2.4992594e-02
 -5.0332523e-03
  2.2900437e-03
 -2.2571275e-01
 -1.7265770e-01
 -5.6984119e-02
  1.3493189e+00
 -3.7677646e-02
 -3.8292471e-01
  4.5219311e-03
 -2.3833385e-02
 -1.0944349e-01
 -3.3820681e-02
  5.2123606e-01
 -5.1506025e-01
 -2.2094332e-01
 -7.2918010e-01
 -4.0227198e-03
  6.2415511e-03
  6.3049826e-03
 -9.9863969e-02
 -5.3553706e-01
  6.5268582e-01
 -5.4020983e-01
  1.4810814e+00
 -6.6391045e-01
 -1.8216443e-01
 -2.2112185e-02
  2.9905602e-02
  1.3838250e-03
 -9.8157451e-02
 -3.2352053e-02
 -1.8985933e-01
  8.2293823e-03
 -2.5930101e-02
 -1.1056753e-01
  1.2301783e-01
 -2.8143999e-01
 -7.0405686e-01
 -4.5416944e-02
 -4.5594919e-01
 -5.9181786e-01
 -4.1016299e-01
 -3.9601451e-01
 -8.4283878e-04
  1.7245922e-03
  1.8299131e-02
  1.3508852e-01
 -1.5762078e-02
  3.5445100e-01
  3.6991873e-01
  5.4892737e-01
  3.2177359e-01
 -5.4799620e-02
 -1.8331811e-02
  2.7317518e-02
 -2.9332577e-03
 -2.7262741e-01
 -9.3063527e-01
 -1.1265609e-01
 -1.0988482e+00
  6.7854516e-02
 -5.7498971e-03
  2.4908108e-03
  4.3522669e-03
 -7.2797481e-03
 -8.3956823e-02
 -3.4941316e-02
 -2.3963135e-01
 -1.6971467e+00
 -1.1731454e+00
 -1.3596257e-03
  3.0393541e-02
 -1.8908259e-03
 -1.4730051e-01
 -1.5755676e-01
 -2.8804260e-01
 -2.9932633e-03
 -5.5816883e-01
 -4.4769704e-01
 -3.0039784e-03
  3.5406582e-02
  1.0553667e-02
 -8.1715025e-03
 -1.5181150e-01
  4.7966186e-03
  2.0013757e-03
 -2.1030313e-01
 -2.6093668e-01
  3.5350441e-03
  3.1071892e-02
 -1.5039057e-02
  4.8162327e-03
 -1.4253232e-02
 -2.4706714e-02
 -3.9084959e-03
 -7.9654658e-04
  1.6575867e-02
 -2.1217061e-02
  6.8500647e-03
 -8.1272768e-03
 -3.7456982e-02
 -3.3217032e-02
 -1.0355551e-02
 -7.6383138e-03
  1.3844270e-02
 -1.7311693e-03
  1.6801752e-02
 -5.6750425e-03
 -5.0572250e-03
 -1.0300482e-02
  2.3761412e-02
  5.2392976e-03
 -5.2893250e-03
  3.9033204e-02
  1.4679291e-02
 -5.1826001e-03
  1.8831944e-03
  8.1301248e-03
  7.5250625e-04
  1.5574197e-02
  2.0658694e-02
 -2.4354603e-02
  2.2398736e-02
  1.7047973e-02
  6.6254992e-04
  6.1257086e-03
  3.8234030e-03
 -4.5047007e-03
  6.9402354e-03
  8.7789036e-03
 -1.0068912e-02
 -2.8685097e-05
 -6.0057673e-03
 -1.8550804e-02
  5.3936825e-03
 -2.4935404e-02
 -1.6070262e-02
  8.6333286e-03
  1.9775005e-03
 -2.0393061e-03
 -8.0377096e-04
  2.1665223e-02
  9.1417665e-03
 -1.0438892e-02
 -1.5442286e-02
  1.7405650e-02
  6.3003651e-03
  1.7417993e-02
  1.5945989e-03
  2.6030480e-03
 -1.0461011e-02
  2.0729493e-02
 -1.0025887e-02
 -7.0726555e-03
 -1.7982745e-03
 -6.7387307e-03
  9.3078390e-03
  2.4561415e-04
  8.8127400e-04
  3.1295149e-03
 -7.7933185e-03
  1.2037873e-03
 -7.4378024e-03
 -5.7993666e-03
 -6.4047746e-04
 -7.9594261e-04
 -4.5294575e-02
 -1.8912366e-02
 -1.3611413e-03
  8.8639949e-03
  1.9542057e-02
  9.4732530e-03
  1.7634499e-03
  7.0709720e-02
  3.4268285e-04
 -1.0785810e-02
 -3.6938654e-04
 -5.0235586e-03
  1.8690798e-02
 -1.9396208e-02
 -2.6180411e-03
  3.6962130e-04
  1.2348047e-03
 -1.5077941e-03
  3.3699486e-02
 -6.4558974e-03
  2.1418757e-03
  6.4897053e-03
  2.2208294e-02
  2.5628044e-03
  8.9392788e-04
  8.1901433e-04
  9.8024227e-04
 -6.6231103e-03
 -3.8665715e-03
 -1.2145458e-02
 -6.4068735e-01
  4.3359600e-02
 -6.6215336e-01
 -4.7284476e-02
 -1.0066431e-02
 -1.1207665e-02
  8.0062106e-02
 -4.4114343e-03
 -4.4142772e-03
  1.7997344e-03
  6.0573112e-02
 -1.9012840e-02
 -3.4282247e-03
 -4.0003685e-03
 -1.8816894e-03
  8.8652521e-02
  6.0666446e-03
 -1.4086355e-02
 -1.2611652e-02
  7.0310277e-03
  1.1087425e-02
  1.0260403e-02
  1.1242365e-01
  3.8802490e-01
 -1.5890041e-02
 -6.1871481e-01
  1.7706698e-02
  5.5427849e-03
  1.2169896e-04
  8.8574374e-03
  1.1594783e-02
  1.3100725e-01
  1.1687791e-01
  1.4808320e-02
  9.8412111e-02
 -1.0780013e-01
  4.3812389e-03
 -1.4556296e-03
 -1.4880626e-02
  4.2696748e-02
  4.6054833e-02
  1.0070559e-03
  8.7128580e-02
  2.4213316e-01
 -4.2649116e-02
  2.3173554e-02
  5.0931610e-03
 -7.6488373e-03
  1.6508037e-02
  5.9636571e-03
 -6.9657555e-03
 -1.0296178e-02
 -7.8571467e-03
  2.6364645e-03
  7.1408795e-03
 -2.7873046e+00
 -1.2252282e-02
  6.7213818e-04
  7.0585632e-03
 -1.6624129e-03
 -2.6073297e-03
  1.3183112e-03
 -1.3753116e-02
 -6.1571179e-03
  4.0118382e-03
 -8.4630605e-03
 -3.0452814e-03
  2.6948597e-02
  1.1083807e-02
  5.3628027e-03
 -1.4106418e-03
  1.9553739e-03
  4.6108775e-03
  4.1002310e-03
 -1.1560795e-02
  3.5629561e-04
  2.7383413e-02
  2.9209265e-03
 -5.1688207e-03
 -3.5052720e-04
 -3.4985221e-03
 -3.1668684e-03
 -1.7272697e-03
 -3.4166989e-03
 -5.4327573e-04
  4.2224401e-03
 -5.2047535e-03
  1.1398100e-02
  1.3264755e-02
  8.4012747e-03
 -9.0461345e-03
 -4.0329415e-03
  1.3202148e-02
  3.2341122e-03
  1.4254373e-02
 -2.1380521e-02
 -2.2173191e-03
  4.2978922e-04
 -3.0497250e-03
  4.2005233e-03
  1.8707732e-02
  2.1168113e-02
 -1.8518973e-03
 -3.8325579e-03
  8.4309662e-03
 -9.3428195e-03
  4.8539164e-03
  3.2652537e-03
 -5.2850088e-03
  9.3238673e-04
 -6.4076297e-03
 -9.6865566e-03
  3.3804872e-03
  3.6445220e-03
  1.3336396e-02
 -8.9432504e-03
  4.4917013e-04
  7.0057553e-04
  3.6607250e-03
  1.7259082e-02
  9.9280812e-03
  4.7310558e-03
  2.0920287e-03
 -4.5973919e-03
  1.1524144e-02
 -4.2524729e-03
 -5.6340559e-03
 -3.4709243e-05
  7.9667112e-03
  7.5431145e-03
 -2.5633765e-02
  2.3474286e-03
 -4.4268262e-04
 -2.2564209e-03
  8.4154028e-03
  7.8114988e-03
  5.3503821e-03
 -4.7948160e-03
  1.2057723e-02
  8.9130818e-04
  3.0241394e-03
 -4.1189115e-03
  6.4648106e-03
 -1.0982248e-03
 -4.7471427e-04
  1.8207936e-02
  3.2555961e-04
 -1.4843934e-02
 -2.9597890e-03
 -1.4669893e-02
 -7.6747523e-03
 -1.6986860e-02
 -4.7736426e-06
 -1.0433172e-02
 -5.6954247e-01
 -9.5998617e-03
  5.4363981e-03
 -9.4255125e-03
 -5.2112062e-03
  1.3622052e-02
 -1.9509381e-02
 -1.6227702e-02
  1.1216650e-02
 -1.3279568e-02
  7.9898676e-03
 -1.7405096e-03
 -1.3022444e-02
  2.5689001e-03
 -7.7731721e-03
  1.4726802e-04
 -1.0181846e-02
  1.1495627e-02
  1.5407309e-03
 -1.6695486e-02
 -6.2973597e-03
  1.6629368e-02
 -8.8476213e-03
  9.5302416e-03
  7.6020490e-03
 -2.2271249e-02
 -1.5499042e-03
  2.4137318e-02
 -1.9531697e-03
 -1.2802966e-02
  1.8302308e-02
 -1.1139289e-02
  4.7578206e-03
 -5.8769677e-03
  1.3166139e-02
  1.2945373e-02
 -2.1757693e-03
 -9.3681570e-03
 -6.6597946e-03
 -4.5307605e-03
 -6.8697421e-04
  1.0800189e-03
  2.8028833e-03
 -1.1124533e-02
  7.1321307e-03
 -5.2719418e-02
  2.9845070e-03
 -4.4360568e-04
 -1.0346926e-02
  5.3668190e-03
  5.5248640e-04
 -1.6757047e-02
 -6.5748033e-04
 -2.7730709e-02
  1.6134601e-02
 -4.5413624e-05
  1.0222392e-02
  3.6746555e-03
  2.2502672e-03
  4.7008828e-03
 -6.8975757e-03
  1.9701757e-03
 -1.0615636e+00
  2.4866238e-03
 -2.3570509e+00
  1.6169365e-01
 -1.4050686e-03
  4.6174157e-01
  5.9683615e-01
  2.1471873e-01
  3.6011094e-01
 -1.5957318e-02
  1.7899385e-03
 -2.5939757e-03
  1.9467369e-02
 -4.4705236e-01
 -9.2692673e-02
  1.7376982e-02
 -2.6196751e-01
 -5.0519472e-01
 -1.9619468e-01
  3.6271771e-03
  3.8380168e-02
  1.1295956e-01
 -1.6471685e-01
 -1.8731678e-01
  7.0298202e-03
  4.7017255e-01
  5.0268316e-01
 -1.6059576e-01
  9.9755498e-03
  1.3033770e-01
  1.5355004e-02
  1.1261863e-01
  1.7073549e-01
 -1.3376009e-01
  8.9002842e-01
  2.8696635e+00
  2.6283249e-01
 -3.4239732e-03
 -1.5983112e-02
 -2.3067866e-03
  4.7292209e-01
 -2.5397085e-02
 -2.0781834e-01
 -6.7513948e-03
  2.0566233e-01
 -4.4014594e-03
  1.2210890e-02
 -1.9554971e-01
  1.9281261e-02
  2.8715834e-02
 -2.2783066e-01
 -3.6842983e-02
  2.5105277e-01
 -1.3563657e-01
  3.8448288e+00
  1.3817319e+00
  4.6173826e-01
  1.0348210e-01
  8.2995808e-01
 -2.3251421e+00
  1.4360257e+00
  2.0490875e+00
 -4.2511029e-03
 -2.4816683e-03
  7.1372963e-02
  1.4395792e-02
  1.1442023e-02
 -6.5562740e-02
 -1.5529591e+00
 -1.8069834e+00
  8.8487178e-02
  2.7069330e-01
 -3.8167574e-02
  8.6672057e-04
  6.2078852e-02
  4.4587934e-03
 -1.5092315e-01
 -1.2417071e-01
  9.0450370e-01
 -8.6303157e-01
 -6.1829142e-02
 -9.2196889e-02
  2.7832473e-02
 -1.4733607e-02
 -7.3536402e-01
 -1.3968580e+00
  5.8885191e-02
 -3.2717407e-02
 -2.0009861e+00
 -3.3189985e-01
  5.1271492e-01
 -2.0848593e-02
  9.8861952e-04
  1.8914501e-01
  4.7397944e-01
  1.2498035e+00
  2.5559673e-01
 -1.6283847e+00
  1.5124978e+00
  3.4877539e-02
  1.3114828e-02
 -2.2103594e-01
  2.0467088e-02
  1.7689696e-02
 -7.0675069e-01
 -1.6929462e-03
  3.1333823e-02
 -8.2948189e-03
 -1.3374855e-03
  9.6345684e-03
  7.7403169e-03
 -3.4956862e-03
 -3.0414671e-02
 -1.6948678e-02
  1.3023322e-02
 -1.3944299e-03
  1.1282320e-03
 -2.4180705e-04
 -4.4776690e-03
  1.1707701e-02
 -9.0560932e-03
 -1.2623389e-02
 -1.0261267e-02
 -1.2083132e-02
  9.1751823e-03
  9.3265838e-04
  2.9776292e-03
 -2.1021424e-03
  1.6476770e-03
  1.1725827e-02
 -1.2141992e-02
 -2.3920839e-03
 -1.3622984e-02
  5.2527580e-03
  2.8704763e-03
  8.0435285e-03
  3.4266422e-03
 -1.3294164e-02
 -9.3719447e-03
  2.4296940e-04
 -6.2722047e-03
 -1.1825289e-02
 -1.9691165e-03
  3.4564990e-03
  1.0691185e-02
  1.4097514e-02
 -1.9213720e-01
  7.1549769e-03
 -1.1900524e-02
 -1.2247059e-02
  1.8513372e-02
 -8.6412067e-04
  2.8457955e-02
 -1.9905997e-02
 -3.0737419e-03
 -7.9751329e-04
 -2.6083139e-03
 -4.3276930e-03
  7.1609614e-04
 -1.4530589e-02
  3.0076329e-03
  7.5401337e-04
  6.2821656e-02
 -1.0851066e-02
 -6.7794532e-01
  2.4048078e-01
  1.0336621e-02
 -8.9894561e-03
  3.2945201e-01
  1.7701730e-01
  6.2997467e-03
  1.3312531e-03
  1.1569362e-02
  1.2302917e-01
  8.4213912e-03
  7.4390601e-03
  4.8213311e-02
 -8.9233797e-03
 -1.6285954e-02
  5.1337945e-01
  1.7753258e-02
  2.1999171e-03
  1.0161981e-01
 -9.9876849e-03
 -3.7524235e-01
 -9.1229882e-03
  3.3912033e-01
 -3.3696881e-01
  1.4337288e-02
  9.0535432e-02
 -1.0473426e-02
  1.7585857e-02
 -1.2451269e-03
 -6.1691999e-02
 -5.2743959e-01
 -3.1570219e-02
  2.6223475e-01
  6.6793185e-01
 -6.6978382e-03
 -2.1845629e-03
  5.0261408e-02
 -7.2696097e-03
 -1.6847616e-01
  2.4916349e-01
  1.9660823e-02
  1.4636980e-01
  6.7389840e-01
 -7.9657637e-02
 -6.8851566e-04
  3.4056571e-03
  6.4942129e-03
 -4.2398847e-03
 -7.0952609e-02
 -2.4446366e-02
  6.3243788e-04
 -4.2695324e-03
  6.1713245e-02
  6.9848758e-01
 -3.4316754e-01
  7.2417120e-03
 -2.4879489e-03
  3.8415501e-03
  6.8202692e-01
 -7.0220181e-03
 -2.3845602e-02
 -1.5737015e+00
 -4.9874592e-01
 -4.6142974e-01
 -5.1171735e-02
  3.8639838e-03
 -1.0856862e-02
 -4.5084156e-02
  8.2708877e-01
  1.5615308e-02
 -5.0037135e-03
 -1.1471845e-02
  1.2527661e+00
 -2.5139605e-03
 -7.3338941e-02
 -1.2120361e+00
  1.1866889e+00
  8.5637914e-03
 -3.9327186e-01
  8.2787387e-03
  1.4357380e+00
  1.2927920e+00
  9.0584168e-03
  3.4370823e-03
 -1.7080827e-02
 -3.4183305e-02
 -8.9271920e-04
 -5.0062495e-01
 -2.6325583e+00
 -2.0955563e-01
 -5.1787949e-01
  1.1574514e+00
  9.2783606e-01
  1.6099742e-03
 -7.6292741e-01
 -2.2148428e-02
 -8.7415767e-01
 -1.3656108e-01
  2.5950682e-01
  1.3078468e+00
  1.0365511e-03
  1.3422302e+00
 -1.0161852e-04
 -4.9865565e-01
 -7.2883074e-03
  1.3539850e+00
 -1.1905485e+00
  4.9734127e-04
  4.9465400e-01
  1.7663643e-03
  8.2701251e-02
  4.6317536e-01
  1.9601103e+00
  1.0118538e+00
 -2.0174313e-01
  3.5365584e-01
 -2.6507580e-03
  9.9516031e-04
 -1.7434331e+00
  3.1202790e-01
 -6.5120596e-01
 -1.1384890e+00
  5.2841146e-02
 -9.5209889e-03
  2.6381728e-01
 -5.6325871e-01
  3.2625504e-02
 -7.6837629e-01
  8.5683870e-01
  4.0209591e-03
  1.1681735e-03
  4.0615144e-01
  2.0753887e+00
  6.0473710e-01
 -3.5932437e-01
 -1.3554187e-01
  9.1391020e-02
 -1.1823492e-02
  1.7588480e-01
 -3.8504640e-03
  1.7280369e-01
 -6.4732105e-01
 -5.8022141e-01
  6.2161577e-01
  5.6349795e-02
  2.5539894e-02
  3.8515362e-01
  1.0837001e-01
  9.2492187e-01
  2.5748014e-01
 -2.3530740e-01
 -2.5242218e-01
  1.7732115e+00
  8.4934141e-03
  7.0958971e-03
  7.3484910e-01
 -1.7076796e+00
  4.1118399e-03
  5.1082778e-01
  4.6629494e-01
 -6.4061016e-01
 -1.3255986e+00
  5.2668236e-02
 -8.2113922e-01
 -8.7296823e-03
  4.2583045e-02
  1.4925674e-02
 -1.4058867e+00
  1.0148272e-03
  2.7685976e-01
 -1.4216876e+00
  4.1587672e-01
 -1.0138890e+00
  7.7943251e-02
 -6.4616162e-01
  8.5299931e-02
 -1.2071323e-02
  6.1673236e-01
 -2.5485411e+00
 -8.8051742e-01
 -1.5688449e-01
  2.2106702e-03
 -2.7890585e-03
  5.1135004e-01
 -2.5227910e-03
  1.1466008e+00
  9.1321164e-01
  2.4745105e-01
  1.1086388e+00
  2.7939123e-01
 -1.5796129e+00
 -3.7726467e+00
  4.8328221e-01
 -4.3923768e-01
  1.4291857e-02
 -5.9194344e-01
  1.9415891e-01
  3.6114447e-02
 -1.5392467e+00
  8.2542503e-01
  8.2316071e-01
  5.8187956e-01
 -5.8341068e-03
  7.4925893e-03
 -8.6523086e-01
  2.7216025e-02
 -7.5485664e-03
  8.9675589e-03
 -1.4297545e+00
 -1.9805235e+00
  4.0081074e-03
  5.6781489e-01
  6.3482742e+00
  1.5228742e+00
  1.7049373e+00
 -1.7229364e+00
  5.7935268e-01
  4.5187235e+00
 -1.9177542e+00
  2.5079169e+00
  2.1685140e+00
 -1.5844327e-01
  2.9233614e-01
 -1.4194064e+00
 -2.1663582e+00
 -1.3340532e-02
 -1.4812934e+00
  2.3883732e-01
 -2.1662095e+00
  1.8493371e+00
  1.4190056e+00
  1.3476702e+00
  6.3329339e-01
 -1.5625724e-01
 -4.6785530e-01
  1.8446889e+00
  1.2699535e-01
  4.2915219e-03
  2.4828045e+00
  1.3983498e+00
 -2.2535215e-01
  6.9115132e-01
  8.3100140e-01
  2.6113250e+00
  1.5089264e+00
 -1.4060891e+00
  1.6191472e+00
  6.6358453e-01
 -8.8852888e-01
  6.8036169e-02
 -8.9666200e-01
  2.0489726e+00
 -8.1855714e-01
  3.2039881e-01
 -2.2617097e-01
  1.3654550e+00
  2.9435787e-01
  1.6632321e-01
 -6.1909002e-01
  6.6778152e-03
 -1.1840551e-01
  5.7777172e-01
 -2.4783592e-01
 -8.4782273e-01
  1.9972429e+00
 -6.1865038e-01
 -1.4041510e-01
  5.6021559e-01
  1.3366408e+00
 -2.3036561e+00
 -1.1005268e-01
  1.6165658e+00
 -2.1751685e+00
 -2.2708742e-01
  7.6698196e-01
  1.1525797e+00
  2.1982884e-01
  4.5794377e-01
 -2.4540000e+00
  1.3531904e+00
  1.9208484e+00
 -1.6298732e+00
 -9.3987381e-01
  1.3825883e+00
  8.4176242e-01
 -1.7227067e-01
  1.7473890e+00
 -1.5852978e+00
  1.0912110e+00
 -6.6691488e-01
 -9.8241222e-01
  4.7971591e-01
  7.6284432e-01
  3.7412086e-01
 -2.9813260e-01
  5.3835177e-01
 -6.3006848e-01
  1.2807826e+00
 -2.4759799e-01
  3.1265128e-01
 -5.8143711e-01
 -4.3038458e-01
  1.7825353e+00
 -4.8579602e-03
 -4.5529898e-02
 -7.4033835e-04
 -2.2863975e-02
  2.1054354e-02
 -1.8598933e-02
  2.6486561e-01
 -3.8855262e-03
  6.8616457e-03
 -1.7748523e-01
  1.4818646e+00
  6.6478884e-01
  1.1903321e+00
  1.7838374e+00
 -1.5541645e+00
  7.6644726e-02
  1.8805518e+00
  1.3152276e-01
  7.1639794e-01
  5.9911156e-01
  8.5550612e-01
  2.2862570e+00
  3.1290793e-01
 -1.7992032e-01
 -4.4822332e-01
  1.1417233e+00
  1.3264467e-01
  1.2674755e-01
  1.1099252e+00
 -2.1881859e-01
  9.8819576e-02
  1.7640406e-02
  1.4902351e+00
  1.8338461e+00
 -1.2833103e+00
 -2.6735274e-02
 -3.9348507e+00
 -8.6647227e-02
 -2.3694625e+00
  1.2914852e+00
 -5.5384368e-01
  2.0413632e+00
 -1.1765131e-01
 -6.4802593e-01
 -1.3887326e+00
  1.3410253e-02
 -8.2619064e-02
 -2.3465295e+00
 -9.9682015e-01
  7.0731831e-01
 -1.6904954e+00
 -8.5692085e-02
 -1.8815078e+00
 -8.6502218e-01
  1.4300356e+00
  1.1872857e+00
  1.4342168e-01
  1.4453285e+00
 -1.7284262e+00
  1.1140230e+00
 -5.4349631e-01
  4.5199323e-01
  9.2227781e-01
  9.7995555e-01
  2.8231852e+00
 -1.6207397e+00
  2.7318020e+00
 -7.4987479e-02
 -4.4959515e-01
 -3.8182497e-02
  2.5327073e-03
  2.8971317e-01
  1.5842801e-02
  1.5842801e-02
  1.5842801e-02
  1.5842801e-02
  1.5842801e-02
  1.5842801e-02
  1.5842801e-02
  1.5842801e-02
  1.5842801e-02
  7.0459642e-02
  7.0459642e-02
  7.0459642e-02
  7.0459642e-02
  7.0459642e-02
  7.0459642e-02
  7.0459642e-02
  7.0459642e-02
  7.0459642e-02
  1.0007550e-01
  1.0007550e-01
  1.0007550e-01
  1.0007550e-01
  1.0007550e-01
  1.0007550e-01
  1.0007550e-01
  1.0007550e-01
  1.0007550e-01
  4.8283882e-02
  4.8283882e-02
  4.8283882e-02
  4.8283882e-02
  4.8283882e-02
  4.8283882e-02
  4.8283882e-02
  4.8283882e-02
  4.8283882e-02
  2.8766735e-02
  2.8766735e-02
  2.8766735e-02
  2.8766735e-02
  2.8766735e-02
  2.8766735e-02
  2.8766735e-02
  2.8766735e-02
  2.8766735e-02
  8.7740608e-02
  8.7740608e-02
  8.7740608e-02
  8.7740608e-02
  8.7740608e-02
  8.7740608e-02
  8.7740608e-02
  8.7740608e-02
  8.7740608e-02